{"learner":{"attributes":{"scikit_learn":"{\"_estimator_type\": \"regressor\"}"},"feature_names":["0","1","2","3","4","5","6","7","8","9","10","11","12","13","14","15","16","17","18","19","20","21","22","23","24","25","26","27","28","29","30","31","32","33","34","35","36","37","38","39","40","41","42","43","44","45","46","47","48","49","50","51","52","53","54","55","56","57","58","59","60","61","62","63","64","65","66","67","68","69","70","71","72","73","74","75","76","77","78","79","80","81","82","83","84","85","86","87","88","89","90","91","92","93","94","95","96","97","98","99","100","101","102","103","104","105","106","107","108","109","110","111","112","113","114","115","116","117","118","119","120","121","122","123","124","125","126","127","128","129","130","131","132","133","134","135","136","137","138","139","140","141","142","143","144","145","146","147","148","149","150","151","152","153","154","155","156","157","158","159","160","161","162","163","164","165","166","167","168","169","170","171","172","173","174","175","176","177","178","179","180","181","182","183","184","185","186","187","188","189","190","191","192","193","194","195","196","197","198","199","200","201","202","203","204","205","206","207","208","209","210","211","212","213","214","215","216","217","218","219","220","221","222","223","224","225","226","227","228","229","230","231","232","233","234","235","236","237","238","239","240","241","242","243","244","245","246","247","248","249","250","251","252","253","254","255","256","257","258","259","260","261","262","263","264","265","266","267","268","269","270","271","272","273","274","275","276","277","278","279","280","281","282","283","284","285","286","287","288","289","290","291","292","293","294","295","296","297","298","299","300","301","302","303","304","305","306","307","308","309","310","311","312","313","314","315","316","317","318","319","320","321","322","323","324","325","326","327","328","329","330","331","332","333","334","335","336","337","338","339","340","341","342","343","344","345","346","347","348","349","350","351","352","353","354","355","356","357","358","359","360","361","362","363","364","365","366","367","368","369","370","371","372","373","374","375","376","377","378","379","380","381","382","383"],"feature_types":["float","float","float","float","float","float","float","float","float","float","float","float","float","float","float","float","float","float","float","float","float","float","float","float","float","float","float","float","float","float","float","float","float","float","float","float","float","float","float","float","float","float","float","float","float","float","float","float","float","float","float","float","float","float","float","float","float","float","float","float","float","float","float","float","float","float","float","float","float","float","float","float","float","float","float","float","float","float","float","float","float","float","float","float","float","float","float","float","float","float","float","float","float","float","float","float","float","float","float","float","float","float","float","float","float","float","float","float","float","float","float","float","float","float","float","float","float","float","float","float","float","float","float","float","float","float","float","float","float","float","float","float","float","float","float","float","float","float","float","float","float","float","float","float","float","float","float","float","float","float","float","float","float","float","float","float","float","float","float","float","float","float","float","float","float","float","float","float","float","float","float","float","float","float","float","float","float","float","float","float","float","float","float","float","float","float","float","float","float","float","float","float","float","float","float","float","float","float","float","float","float","float","float","float","float","float","float","float","float","float","float","float","float","float","float","float","float","float","float","float","float","float","float","float","float","float","float","float","float","float","float","float","float","float","float","float","float","float","float","float","float","float","float","float","float","float","float","float","float","float","float","float","float","float","float","float","float","float","float","float","float","float","float","float","float","float","float","float","float","float","float","float","float","float","float","float","float","float","float","float","float","float","float","float","float","float","float","float","float","float","float","float","float","float","float","float","float","float","float","float","float","float","float","float","float","float","float","float","float","float","float","float","float","float","float","float","float","float","float","float","float","float","float","float","float","float","float","float","float","float","float","float","float","float","float","float","float","float","float","float","float","float","float","float","float","float","float","float","float","float","float","float","float","float","float","float","float","float","float","float","float","float","float","float","float","float","float","float","float","float","float","float","float","float","float","float","float","float","float","float","float","float","float","float"],"gradient_booster":{"model":{"gbtree_model_param":{"num_parallel_tree":"1","num_trees":"100"},"iteration_indptr":[0,1,2,3,4,5,6,7,8,9,10,11,12,13,14,15,16,17,18,19,20,21,22,23,24,25,26,27,28,29,30,31,32,33,34,35,36,37,38,39,40,41,42,43,44,45,46,47,48,49,50,51,52,53,54,55,56,57,58,59,60,61,62,63,64,65,66,67,68,69,70,71,72,73,74,75,76,77,78,79,80,81,82,83,84,85,86,87,88,89,90,91,92,93,94,95,96,97,98,99,100],"tree_info":[0,0,0,0,0,0,0,0,0,0,0,0,0,0,0,0,0,0,0,0,0,0,0,0,0,0,0,0,0,0,0,0,0,0,0,0,0,0,0,0,0,0,0,0,0,0,0,0,0,0,0,0,0,0,0,0,0,0,0,0,0,0,0,0,0,0,0,0,0,0,0,0,0,0,0,0,0,0,0,0,0,0,0,0,0,0,0,0,0,0,0,0,0,0,0,0,0,0,0,0],"trees":[{"base_weights":[-5.7131557E0,-3.4720227E2,1.5738337E3,-3.6766354E2,1.1896159E4,7.7183014E2,4.2681963E3,-4.351046E1,-3.0996153E0,8.361053E1,1.4563126E2,2.9694384E1,1.9330758E0,2.2346191E1,8.613653E1],"categories":[],"categories_nodes":[],"categories_segments":[],"categories_sizes":[],"default_left":[0,0,0,0,0,0,0,0,0,0,0,0,0,0,0],"id":0,"left_children":[1,3,5,7,9,11,13,-1,-1,-1,-1,-1,-1,-1,-1],"loss_changes":[6.093311E10,2.3273185E10,4.338951E10,2.1312557E10,1.3395784E9,1.9675087E10,4.068316E10,0E0,0E0,0E0,0E0,0E0,0E0,0E0,0E0],"parents":[2147483647,0,0,1,1,2,2,3,3,4,4,5,5,6,6],"right_children":[2,4,6,8,10,12,14,-1,-1,-1,-1,-1,-1,-1,-1],"split_conditions":[2.778788E-1,4.886006E-1,6.945989E-1,-3.1799144E-1,-2.2696234E-1,8.337217E-2,4.551655E-1,-4.351046E1,-3.0996153E0,8.361053E1,1.4563126E2,2.9694384E1,1.9330758E0,2.2346191E1,8.613653E1],"split_indices":[125,67,221,235,0,280,158,0,0,0,0,0,0,0,0],"split_type":[0,0,0,0,0,0,0,0,0,0,0,0,0,0,0],"sum_hessian":[1.12963E5,9.2883E4,2.008E4,9.2729E4,1.54E2,1.5475E4,4.605E3,1.323E3,9.1406E4,6.8E1,8.6E1,3.224E3,1.2251E4,3.138E3,1.467E3],"tree_param":{"num_deleted":"0","num_feature":"384","num_nodes":"15","size_leaf_vector":"1"}},{"base_weights":[1.5887286E1,1.3485895E3,-3.9869635E2,7.5887524E2,6.372602E3,-4.1078657E3,-3.4382242E2,1.8695747E1,-1.7725766E0,3.026225E1,1.123663E2,-9.864363E0,-7.3491135E1,-3.929732E0,1.9528322E1],"categories":[],"categories_nodes":[],"categories_segments":[],"categories_sizes":[],"default_left":[0,0,0,0,0,0,0,0,0,0,0,0,0,0,0],"id":1,"left_children":[1,3,5,7,9,11,13,-1,-1,-1,-1,-1,-1,-1,-1],"loss_changes":[6.2513914E10,7.9532655E10,1.7563398E10,2.49827E10,4.5866787E10,1.2720347E10,9.600399E9,0E0,0E0,0E0,0E0,0E0,0E0,0E0,0E0],"parents":[2147483647,0,0,1,1,2,2,3,3,4,4,5,5,6,6],"right_children":[2,4,6,8,10,12,14,-1,-1,-1,-1,-1,-1,-1,-1],"split_conditions":[-3.6317146E-1,7.4377394E-1,-3.1799144E-1,-3.1584695E-1,1.151997E-1,8.4966764E-2,4.0468982E-1,1.8695747E1,-1.7725766E0,3.026225E1,1.123663E2,-9.864363E0,-7.3491135E1,-3.929732E0,1.9528322E1],"split_indices":[48,221,235,230,86,89,125,0,0,0,0,0,0,0,0],"split_type":[0,0,0,0,0,0,0,0,0,0,0,0,0,0,0],"sum_hessian":[1.13142E5,2.6845E4,8.6297E4,2.4026E4,2.819E3,1.257E3,8.504E4,1.0988E4,1.3038E4,1.671E3,1.148E3,6.41E2,6.16E2,8.3259E4,1.781E3],"tree_param":{"num_deleted":"0","num_feature":"384","num_nodes":"15","size_leaf_vector":"1"}},{"base_weights":[3.7997167E0,-3.517246E2,1.4768457E3,-3.8962033E2,5.124316E3,8.343166E3,1.1715765E3,-3.821087E1,-3.3863602E0,2.398526E1,9.428361E1,1.0933068E2,5.295244E1,7.39093E0,4.6207832E1],"categories":[],"categories_nodes":[],"categories_segments":[],"categories_sizes":[],"default_left":[0,0,0,0,0,0,0,0,0,0,0,0,0,0,0],"id":2,"left_children":[1,3,5,7,9,11,13,-1,-1,-1,-1,-1,-1,-1,-1],"loss_changes":[5.9113046E10,1.8871452E10,4.59907E10,1.5797654E10,7.3098383E9,7.3149317E9,3.1342203E10,0E0,0E0,0E0,0E0,0E0,0E0,0E0,0E0],"parents":[2147483647,0,0,1,1,2,2,3,3,4,4,5,5,6,6],"right_children":[2,4,6,8,10,12,14,-1,-1,-1,-1,-1,-1,-1,-1],"split_conditions":[2.6475093E-1,3.5744593E-1,-4.0488538E-1,-3.1799144E-1,-6.362858E-2,-2.799459E-1,3.2794622E-1,-3.821087E1,-3.3863602E0,2.398526E1,9.428361E1,1.0933068E2,5.295244E1,7.39093E0,4.6207832E1],"split_indices":[125,137,138,235,2,172,67,0,0,0,0,0,0,0,0],"split_type":[0,0,0,0,0,0,0,0,0,0,0,0,0,0,0],"sum_hessian":[1.12873E5,9.0928E4,2.1945E4,9.0304E4,6.24E2,9.33E2,2.1012E4,1.321E3,8.8983E4,3.83E2,2.41E2,5.03E2,4.3E2,1.8672E4,2.34E3],"tree_param":{"num_deleted":"0","num_feature":"384","num_nodes":"15","size_leaf_vector":"1"}},{"base_weights":[-3.2147455E0,-3.515216E2,1.4270433E3,-3.7462848E2,1.2654509E4,1.037532E4,1.1820182E3,-4.0360992E1,-3.2057707E0,1.6342998E2,1.0241101E2,1.19374306E2,2.427018E1,1.6174219E2,1.0887173E1],"categories":[],"categories_nodes":[],"categories_segments":[],"categories_sizes":[],"default_left":[0,0,0,0,0,0,0,0,0,0,0,0,0,0,0],"id":3,"left_children":[1,3,5,7,9,11,13,-1,-1,-1,-1,-1,-1,-1,-1],"loss_changes":[5.6228303E10,2.7282508E10,4.845194E10,1.7930314E10,1.2658237E9,7.2841216E9,3.0078642E10,0E0,0E0,0E0,0E0,0E0,0E0,0E0,0E0],"parents":[2147483647,0,0,1,1,2,2,3,3,4,4,5,5,6,6],"right_children":[2,4,6,8,10,12,14,-1,-1,-1,-1,-1,-1,-1,-1],"split_conditions":[2.6475093E-1,4.886006E-1,-4.2457423E-1,-3.1799144E-1,-2.2696234E-1,1.9552797E-1,1.7455779E-1,-4.0360992E1,-3.2057707E0,1.6342998E2,1.0241101E2,1.19374306E2,2.427018E1,1.6174219E2,1.0887173E1],"split_indices":[125,67,138,235,0,78,28,0,0,0,0,0,0,0,0],"split_type":[0,0,0,0,0,0,0,0,0,0,0,0,0,0,0],"sum_hessian":[1.12868E5,9.0765E4,2.2103E4,9.0605E4,1.6E2,5.88E2,2.1515E4,1.317E3,8.9288E4,6.1E1,9.9E1,4.91E2,9.7E1,1.32E2,2.1383E4],"tree_param":{"num_deleted":"0","num_feature":"384","num_nodes":"15","size_leaf_vector":"1"}},{"base_weights":[-2.011745E1,-3.5971933E2,1.381387E3,-3.7988342E2,1.1296507E4,9.392436E3,1.1508317E3,3.3836858E0,-6.387792E0,8.301172E1,1.373607E2,3.0572876E1,1.1215015E2,7.027564E0,3.905624E1],"categories":[],"categories_nodes":[],"categories_segments":[],"categories_sizes":[],"default_left":[0,0,0,0,0,0,0,0,0,0,0,0,0,0,0],"id":4,"left_children":[1,3,5,7,9,11,13,-1,-1,-1,-1,-1,-1,-1,-1],"loss_changes":[5.3744693E10,2.1367978E10,4.066912E10,1.6873355E10,1.03322214E9,7.07824E9,2.6424791E10,0E0,0E0,0E0,0E0,0E0,0E0,0E0,0E0],"parents":[2147483647,0,0,1,1,2,2,3,3,4,4,5,5,6,6],"right_children":[2,4,6,8,10,12,14,-1,-1,-1,-1,-1,-1,-1,-1],"split_conditions":[2.6475093E-1,4.886006E-1,-4.1431883E-1,-3.079463E-1,-2.2696234E-1,4.492432E-3,3.012696E-1,3.3836858E0,-6.387792E0,8.301172E1,1.373607E2,3.0572876E1,1.1215015E2,7.027564E0,3.905624E1],"split_indices":[125,67,138,230,0,74,67,0,0,0,0,0,0,0,0],"split_type":[0,0,0,0,0,0,0,0,0,0,0,0,0,0,0],"sum_hessian":[1.12918E5,9.0894E4,2.2024E4,9.0738E4,1.56E2,6.15E2,2.1409E4,2.4041E4,6.6697E4,7.2E1,8.4E1,1.38E2,4.77E2,1.8415E4,2.994E3],"tree_param":{"num_deleted":"0","num_feature":"384","num_nodes":"15","size_leaf_vector":"1"}},{"base_weights":[-5.62896E0,1.2488904E3,-3.955294E2,7.096498E2,5.7376953E3,-3.8915845E3,-3.395586E2,-1.1730387E1,1.1560168E1,3.1248762E1,1.04535126E2,-1.0726787E1,-6.6474724E1,-3.8613365E0,1.8373962E1],"categories":[],"categories_nodes":[],"categories_segments":[],"categories_sizes":[],"default_left":[0,0,0,0,0,0,0,0,0,0,0,0,0,0,0],"id":5,"left_children":[1,3,5,7,9,11,13,-1,-1,-1,-1,-1,-1,-1,-1],"loss_changes":[5.5382127E10,6.49779E10,1.690087E10,2.0143346E10,3.5441148E10,1.0565919E10,8.620845E9,0E0,0E0,0E0,0E0,0E0,0E0,0E0,0E0],"parents":[2147483647,0,0,1,1,2,2,3,3,4,4,5,5,6,6],"right_children":[2,4,6,8,10,12,14,-1,-1,-1,-1,-1,-1,-1,-1],"split_conditions":[-3.6317146E-1,7.4377394E-1,-3.1799144E-1,-6.9234365E-1,4.7893584E-2,8.4966764E-2,4.0468982E-1,-1.1730387E1,1.1560168E1,3.1248762E1,1.04535126E2,-1.0726787E1,-6.6474724E1,-3.8613365E0,1.8373962E1],"split_indices":[48,221,235,338,43,89,125,0,0,0,0,0,0,0,0],"split_type":[0,0,0,0,0,0,0,0,0,0,0,0,0,0,0],"sum_hessian":[1.13222E5,2.6845E4,8.6377E4,2.3967E4,2.878E3,1.36E3,8.5017E4,4.593E3,1.9374E4,1.853E3,1.025E3,6.73E2,6.87E2,8.3237E4,1.78E3],"tree_param":{"num_deleted":"0","num_feature":"384","num_nodes":"15","size_leaf_vector":"1"}},{"base_weights":[-8.037628E0,-3.4911774E2,1.386501E3,-3.8875574E3,-2.9786298E2,9.7823125E3,1.1392273E3,-7.847155E0,-7.086137E1,-3.15701E0,9.448637E1,1.163147E2,3.134723E1,7.1424723E0,4.5431957E1],"categories":[],"categories_nodes":[],"categories_segments":[],"categories_sizes":[],"default_left":[0,0,0,0,0,0,0,0,0,0,0,0,0,0,0],"id":6,"left_children":[1,3,5,7,9,11,13,-1,-1,-1,-1,-1,-1,-1,-1],"loss_changes":[5.3902025E10,1.6512388E10,4.622278E10,1.289653E10,1.5607476E10,7.7938156E9,3.129291E10,0E0,0E0,0E0,0E0,0E0,0E0,0E0,0E0],"parents":[2147483647,0,0,1,1,2,2,3,3,4,4,5,5,6,6],"right_children":[2,4,6,8,10,12,14,-1,-1,-1,-1,-1,-1,-1,-1],"split_conditions":[2.6475093E-1,-3.1799144E-1,-4.1431883E-1,8.4966764E-2,4.886006E-1,-4.7968563E-2,3.2794622E-1,-7.847155E0,-7.086137E1,-3.15701E0,9.448637E1,1.163147E2,3.134723E1,7.1424723E0,4.5431957E1],"split_indices":[125,235,138,89,67,29,67,0,0,0,0,0,0,0,0],"split_type":[0,0,0,0,0,0,0,0,0,0,0,0,0,0,0],"sum_hessian":[1.13321E5,9.1052E4,2.2269E4,1.299E3,8.9753E4,6.36E2,2.1633E4,6.6E2,6.39E2,8.959E4,1.63E2,4.97E2,1.39E2,1.9233E4,2.4E3],"tree_param":{"num_deleted":"0","num_feature":"384","num_nodes":"15","size_leaf_vector":"1"}},{"base_weights":[8.682273E0,-3.357771E2,1.4096409E3,5.7359653E3,-3.697667E2,8.0625337E3,1.1171641E3,1.2760613E2,1.2389056E1,-3.896685E1,-3.1907427E0,4.2433758E1,1.08889145E2,6.9346485E0,4.4213127E1],"categories":[],"categories_nodes":[],"categories_segments":[],"categories_sizes":[],"default_left":[0,0,0,0,0,0,0,0,0,0,0,0,0,0,0],"id":7,"left_children":[1,3,5,7,9,11,13,-1,-1,-1,-1,-1,-1,-1,-1],"loss_changes":[5.4534152E10,1.8721456E10,4.338661E10,1.5937273E10,1.6125611E10,1.0089734E10,2.9905785E10,0E0,0E0,0E0,0E0,0E0,0E0,0E0,0E0],"parents":[2147483647,0,0,1,1,2,2,3,3,4,4,5,5,6,6],"right_children":[2,4,6,8,10,12,14,-1,-1,-1,-1,-1,-1,-1,-1],"split_conditions":[2.6475093E-1,-2.197366E-1,-4.0488538E-1,-2.233503E-1,-3.1799144E-1,3.8436344E-1,3.2794622E-1,1.2760613E2,1.2389056E1,-3.896685E1,-3.1907427E0,4.2433758E1,1.08889145E2,6.9346485E0,4.4213127E1],"split_indices":[125,163,138,3,235,191,67,0,0,0,0,0,0,0,0],"split_type":[0,0,0,0,0,0,0,0,0,0,0,0,0,0,0],"sum_hessian":[1.13005E5,9.0704E4,2.2301E4,5.04E2,9.02E4,9.38E2,2.1363E4,1.96E2,3.08E2,1.277E3,8.8923E4,4E2,5.38E2,1.8936E4,2.427E3],"tree_param":{"num_deleted":"0","num_feature":"384","num_nodes":"15","size_leaf_vector":"1"}},{"base_weights":[-4.6365104E0,1.1935188E3,-3.781977E2,7.234431E2,5.2410674E3,-3.8159426E3,-3.262384E2,1.8279875E1,-1.9332076E0,3.0904133E1,1.0218932E2,-2.2047207E1,-9.260062E1,-3.762314E0,1.9139446E1],"categories":[],"categories_nodes":[],"categories_segments":[],"categories_sizes":[],"default_left":[0,0,0,0,0,0,0,0,0,0,0,0,0,0,0],"id":8,"left_children":[1,3,5,7,9,11,13,-1,-1,-1,-1,-1,-1,-1,-1],"loss_changes":[5.0478113E10,5.099685E10,1.5355668E10,2.4320123E10,2.9826523E10,1.1207344E10,9.486011E9,0E0,0E0,0E0,0E0,0E0,0E0,0E0,0E0],"parents":[2147483647,0,0,1,1,2,2,3,3,4,4,5,5,6,6],"right_children":[2,4,6,8,10,12,14,-1,-1,-1,-1,-1,-1,-1,-1],"split_conditions":[-3.6317146E-1,7.4377394E-1,-3.1799144E-1,-3.1584695E-1,1.3872577E-1,-1.3494435E-1,4.0468982E-1,1.8279875E1,-1.9332076E0,3.0904133E1,1.0218932E2,-2.2047207E1,-9.260062E1,-3.762314E0,1.9139446E1],"split_indices":[48,221,235,230,323,105,125,0,0,0,0,0,0,0,0],"split_type":[0,0,0,0,0,0,0,0,0,0,0,0,0,0,0],"sum_hessian":[1.12777E5,2.6804E4,8.5973E4,2.4016E4,2.788E3,1.279E3,8.4694E4,1.0892E4,1.3124E4,1.948E3,8.4E2,9.88E2,2.91E2,8.2846E4,1.848E3],"tree_param":{"num_deleted":"0","num_feature":"384","num_nodes":"15","size_leaf_vector":"1"}},{"base_weights":[-7.263523E-1,1.3423494E3,-3.5378308E2,8.746697E3,1.0760972E3,-4.0979873E3,-3.0243558E2,1.0152732E2,3.0251705E1,9.281948E1,8.782322E0,-2.4636862E1,-9.9832954E1,-3.8851717E0,8.405651E0],"categories":[],"categories_nodes":[],"categories_segments":[],"categories_sizes":[],"default_left":[0,0,0,0,0,0,0,0,0,0,0,0,0,0,0],"id":9,"left_children":[1,3,5,7,9,11,13,-1,-1,-1,-1,-1,-1,-1,-1],"loss_changes":[5.343129E10,4.6230327E10,1.7152958E10,6.5176494E9,3.675454E10,1.158477E10,8.660734E9,0E0,0E0,0E0,0E0,0E0,0E0,0E0,0E0],"parents":[2147483647,0,0,1,1,2,2,3,3,4,4,5,5,6,6],"right_children":[2,4,6,8,10,12,14,-1,-1,-1,-1,-1,-1,-1,-1],"split_conditions":[-3.7155116E-1,-1.396873E-1,-3.1799144E-1,9.7671226E-2,-6.5278605E-2,-8.6910084E-2,8.774486E-2,1.0152732E2,3.0251705E1,9.281948E1,8.782322E0,-2.4636862E1,-9.9832954E1,-3.8851717E0,8.405651E0],"split_indices":[164,155,235,184,301,204,104,0,0,0,0,0,0,0,0],"split_type":[0,0,0,0,0,0,0,0,0,0,0,0,0,0,0],"sum_hessian":[1.12679E5,2.3454E4,8.9225E4,8.13E2,2.2641E4,1.206E3,8.8019E4,6.52E2,1.61E2,5.32E2,2.2109E4,9.45E2,2.61E2,8.1855E4,6.164E3],"tree_param":{"num_deleted":"0","num_feature":"384","num_nodes":"15","size_leaf_vector":"1"}},{"base_weights":[3.982369E0,-3.2668954E2,1.3674166E3,-3.9483467E3,-2.730989E2,9.245367E2,5.254205E3,-1.24697485E1,-7.667146E1,5.2184895E1,-3.0476415E0,5.936543E1,7.2628665E0,3.8550266E1,1.1754244E2],"categories":[],"categories_nodes":[],"categories_segments":[],"categories_sizes":[],"default_left":[0,0,0,0,0,0,0,0,0,0,0,0,0,0,0],"id":10,"left_children":[1,3,5,7,9,11,13,-1,-1,-1,-1,-1,-1,-1,-1],"loss_changes":[5.106049E10,1.7689547E10,3.804798E10,1.3341391E10,1.5620606E10,1.9715273E10,2.0517835E10,0E0,0E0,0E0,0E0,0E0,0E0,0E0,0E0],"parents":[2147483647,0,0,1,1,2,2,3,3,4,4,5,5,6,6],"right_children":[2,4,6,8,10,12,14,-1,-1,-1,-1,-1,-1,-1,-1],"split_conditions":[2.6475093E-1,-3.1799144E-1,3.5389397E-1,-4.2987442E-1,-2.197366E-1,-4.0488538E-1,1.7901623E-1,-1.24697485E1,-7.667146E1,5.2184895E1,-3.0476415E0,5.936543E1,7.2628665E0,3.8550266E1,1.1754244E2],"split_indices":[125,235,67,271,163,138,323,0,0,0,0,0,0,0,0],"split_type":[0,0,0,0,0,0,0,0,0,0,0,0,0,0,0],"sum_hessian":[1.13252E5,9.1147E4,2.2105E4,1.328E3,8.9819E4,1.9845E4,2.26E3,7.7E2,5.58E2,5.14E2,8.9305E4,7.54E2,1.9091E4,1.861E3,3.99E2],"tree_param":{"num_deleted":"0","num_feature":"384","num_nodes":"15","size_leaf_vector":"1"}},{"base_weights":[1.0688281E1,1.3500812E3,-3.4318857E2,6.738933E2,4.1233857E3,-4.1480317E3,-2.9388742E2,1.6268562E1,-1.1625916E0,2.1424307E1,9.903685E1,-8.879342E0,-6.8022354E1,3.4638994E0,-4.781671E0],"categories":[],"categories_nodes":[],"categories_segments":[],"categories_sizes":[],"default_left":[0,0,0,0,0,0,0,0,0,0,0,0,0,0,0],"id":11,"left_children":[1,3,5,7,9,11,13,-1,-1,-1,-1,-1,-1,-1,-1],"loss_changes":[5.3639373E10,4.4349338E10,1.6790657E10,1.4318972E10,5.306337E10,9.901603E9,1.0427306E10,0E0,0E0,0E0,0E0,0E0,0E0,0E0,0E0],"parents":[2147483647,0,0,1,1,2,2,3,3,4,4,5,5,6,6],"right_children":[2,4,6,8,10,12,14,-1,-1,-1,-1,-1,-1,-1,-1],"split_conditions":[-3.7155116E-1,2.066127E-1,-3.1799144E-1,-3.7798136E-1,-7.553492E-2,8.4966764E-2,-3.1584695E-1,1.6268562E1,-1.1625916E0,2.1424307E1,9.903685E1,-8.879342E0,-6.8022354E1,3.4638994E0,-4.781671E0],"split_indices":[164,368,235,370,77,89,230,0,0,0,0,0,0,0,0],"split_type":[0,0,0,0,0,0,0,0,0,0,0,0,0,0,0],"sum_hessian":[1.13166E5,2.365E4,8.9516E4,1.9015E4,4.635E3,1.144E3,8.8372E4,8.619E3,1.0396E4,3.453E3,1.182E3,5.14E2,6.3E2,1.975E4,6.8622E4],"tree_param":{"num_deleted":"0","num_feature":"384","num_nodes":"15","size_leaf_vector":"1"}},{"base_weights":[-1.5394456E1,-3.3893515E2,1.3127161E3,-3.5931277E2,1.0675971E2,8.3853394E2,5.432571E3,3.1468544E0,-6.0457706E0,5.62037E1,6.467962E0,3.6382305E1,1.1403416E2],"categories":[],"categories_nodes":[],"categories_segments":[],"categories_sizes":[],"default_left":[0,0,0,0,0,0,0,0,0,0,0,0,0],"id":12,"left_children":[1,3,5,7,-1,9,11,-1,-1,-1,-1,-1,-1],"loss_changes":[4.860743E10,2.042072E10,4.3284402E10,1.5009141E10,0E0,1.8217091E10,2.4460816E10,0E0,0E0,0E0,0E0,0E0,0E0],"parents":[2147483647,0,0,1,1,2,2,3,3,5,5,6,6],"right_children":[2,4,6,8,-1,10,12,-1,-1,-1,-1,-1,-1],"split_conditions":[2.6475093E-1,4.886006E-1,3.5389397E-1,-3.079026E-1,1.0675971E2,-4.0488538E-1,1.6577514E-1,3.1468544E0,-6.0457706E0,5.62037E1,6.467962E0,3.6382305E1,1.1403416E2],"split_indices":[125,67,67,230,0,138,323,0,0,0,0,0,0],"split_type":[0,0,0,0,0,0,0,0,0,0,0,0,0],"sum_hessian":[1.13118E5,9.096E4,2.2158E4,9.0793E4,1.67E2,1.9872E4,2.286E3,2.4224E4,6.6569E4,7.65E2,1.9107E4,1.759E3,5.27E2],"tree_param":{"num_deleted":"0","num_feature":"384","num_nodes":"13","size_leaf_vector":"1"}},{"base_weights":[8.146494E0,1.3013794E3,-3.3357486E2,1.118484E3,1.1176405E4,-4.922589E3,-2.9396295E2,8.275716E1,9.448303E0,1.2607297E2,7.0994865E1,-2.7093E1,-1.0731432E2,3.292112E0,-4.706501E0],"categories":[],"categories_nodes":[],"categories_segments":[],"categories_sizes":[],"default_left":[0,0,0,0,0,0,0,0,0,0,0,0,0,0,0],"id":13,"left_children":[1,3,5,7,9,11,13,-1,-1,-1,-1,-1,-1,-1,-1],"loss_changes":[5.001135E10,4.270711E10,1.6270378E10,2.885681E10,2.4189542E9,9.819118E9,9.772032E9,0E0,0E0,0E0,0E0,0E0,0E0,0E0,0E0],"parents":[2147483647,0,0,1,1,2,2,3,3,4,4,5,5,6,6],"right_children":[2,4,6,8,10,12,14,-1,-1,-1,-1,-1,-1,-1,-1],"split_conditions":[-3.7155116E-1,4.886006E-1,-2.9496935E-1,-6.5278605E-2,3.217938E-1,-1.08609475E-1,-3.1584695E-1,8.275716E1,9.448303E0,1.2607297E2,7.0994865E1,-2.7093E1,-1.0731432E2,3.292112E0,-4.706501E0],"split_indices":[164,67,371,301,125,377,230,0,0,0,0,0,0,0,0],"split_type":[0,0,0,0,0,0,0,0,0,0,0,0,0,0,0],"sum_hessian":[1.13165E5,2.3652E4,8.9513E4,2.3223E4,4.29E2,7.65E2,8.8748E4,5.49E2,2.2674E4,3.16E2,1.13E2,5.55E2,2.1E2,1.9604E4,6.9144E4],"tree_param":{"num_deleted":"0","num_feature":"384","num_nodes":"15","size_leaf_vector":"1"}},{"base_weights":[-1.0978811E0,1.4523456E3,-2.8341544E2,8.502662E2,7.520953E3,-3.4450242E3,-2.3973619E2,1.6914963E1,-7.6499724E0,9.028948E1,1.361217E0,-8.534616E0,-6.499957E1,-3.5715692E0,6.4974813E0],"categories":[],"categories_nodes":[],"categories_segments":[],"categories_sizes":[],"default_left":[0,0,0,0,0,0,0,0,0,0,0,0,0,0,0],"id":14,"left_children":[1,3,5,7,9,11,13,-1,-1,-1,-1,-1,-1,-1,-1],"loss_changes":[4.6319174E10,6.707708E10,1.305235E10,2.2698828E10,1.8451595E10,1.0191613E10,9.73806E9,0E0,0E0,0E0,0E0,0E0,0E0,0E0,0E0],"parents":[2147483647,0,0,1,1,2,2,3,3,4,4,5,5,6,6],"right_children":[2,4,6,8,10,12,14,-1,-1,-1,-1,-1,-1,-1,-1],"split_conditions":[-4.2100993E-1,3.8709918E-1,-3.1799144E-1,2.681379E-1,8.592919E-2,8.4966764E-2,1.3271216E-1,1.6914963E1,-7.6499724E0,9.028948E1,1.361217E0,-8.534616E0,-6.499957E1,-3.5715692E0,6.4974813E0],"split_indices":[48,149,235,291,360,89,340,0,0,0,0,0,0,0,0],"split_type":[0,0,0,0,0,0,0,0,0,0,0,0,0,0,0],"sum_hessian":[1.1288E5,1.8359E4,9.4521E4,1.6703E4,1.656E3,1.287E3,9.3234E4,1.0983E4,5.72E3,1.375E3,2.81E2,6.97E2,5.9E2,8.2362E4,1.0872E4],"tree_param":{"num_deleted":"0","num_feature":"384","num_nodes":"15","size_leaf_vector":"1"}},{"base_weights":[-1.4975245E1,1.4029528E3,-2.9002393E2,8.334187E2,7.137614E3,-3.3831975E3,-2.4662111E2,1.6390938E1,-7.0702896E0,9.315091E1,1.3726578E1,-9.831017E0,-6.585851E1,-3.7158868E0,6.9986157E0],"categories":[],"categories_nodes":[],"categories_segments":[],"categories_sizes":[],"default_left":[0,0,0,0,0,0,0,0,0,0,0,0,0,0,0],"id":15,"left_children":[1,3,5,7,9,11,13,-1,-1,-1,-1,-1,-1,-1,-1],"loss_changes":[4.408553E10,5.9975692E10,1.2709516E10,2.0736221E10,2.0812743E10,1.0063069E10,1.1043555E10,0E0,0E0,0E0,0E0,0E0,0E0,0E0,0E0],"parents":[2147483647,0,0,1,1,2,2,3,3,4,4,5,5,6,6],"right_children":[2,4,6,8,10,12,14,-1,-1,-1,-1,-1,-1,-1,-1],"split_conditions":[-4.2100993E-1,3.8709918E-1,-3.1799144E-1,2.681379E-1,-1.6175629E-1,-4.2785743E-1,1.3271216E-1,1.6390938E1,-7.0702896E0,9.315091E1,1.3726578E1,-9.831017E0,-6.585851E1,-3.7158868E0,6.9986157E0],"split_indices":[48,149,235,291,258,271,340,0,0,0,0,0,0,0,0],"split_type":[0,0,0,0,0,0,0,0,0,0,0,0,0,0,0],"sum_hessian":[1.13038E5,1.8364E4,9.4674E4,1.6706E4,1.658E3,1.309E3,9.3365E4,1.0969E4,5.737E3,1.203E3,4.55E2,7.49E2,5.6E2,8.2476E4,1.0889E4],"tree_param":{"num_deleted":"0","num_feature":"384","num_nodes":"15","size_leaf_vector":"1"}},{"base_weights":[1.122309E1,1.1762104E3,-3.513096E2,7.2663367E2,5.288255E3,-3.6415432E3,-3.0234097E2,-1.2089705E1,1.1791669E1,2.4105947E1,9.2047714E1,-1.0542634E1,-6.170212E1,-3.5135117E0,1.9339935E1],"categories":[],"categories_nodes":[],"categories_segments":[],"categories_sizes":[],"default_left":[0,0,0,0,0,0,0,0,0,0,0,0,0,0,0],"id":16,"left_children":[1,3,5,7,9,11,13,-1,-1,-1,-1,-1,-1,-1,-1],"loss_changes":[4.7508427E10,4.9350357E10,1.3821232E10,2.1082313E10,2.9630243E10,8.2238024E9,9.265766E9,0E0,0E0,0E0,0E0,0E0,0E0,0E0,0E0],"parents":[2147483647,0,0,1,1,2,2,3,3,4,4,5,5,6,6],"right_children":[2,4,6,8,10,12,14,-1,-1,-1,-1,-1,-1,-1,-1],"split_conditions":[-3.6317146E-1,7.6463026E-1,-3.1799144E-1,-6.9234365E-1,1.151997E-1,8.4966764E-2,4.0468982E-1,-1.2089705E1,1.1791669E1,2.4105947E1,9.2047714E1,-1.0542634E1,-6.170212E1,-3.5135117E0,1.9339935E1],"split_indices":[48,221,235,338,86,89,125,0,0,0,0,0,0,0,0],"split_type":[0,0,0,0,0,0,0,0,0,0,0,0,0,0,0],"sum_hessian":[1.12485E5,2.6696E4,8.5789E4,2.4066E4,2.63E3,1.257E3,8.4532E4,4.56E3,1.9506E4,1.517E3,1.113E3,6.22E2,6.35E2,8.272E4,1.812E3],"tree_param":{"num_deleted":"0","num_feature":"384","num_nodes":"15","size_leaf_vector":"1"}},{"base_weights":[-1.2876561E0,1.1444448E3,-3.5713837E2,4.632244E3,6.0764923E2,-3.639665E3,-3.0783154E2,3.2669483E1,9.298595E1,4.9777308E0,9.837833E1,-1.1679027E1,-6.529809E1,-3.8355453E0,6.6083336E0],"categories":[],"categories_nodes":[],"categories_segments":[],"categories_sizes":[],"default_left":[0,0,0,0,0,0,0,0,0,0,0,0,0,0,0],"id":17,"left_children":[1,3,5,7,9,11,13,-1,-1,-1,-1,-1,-1,-1,-1],"loss_changes":[4.6076092E10,5.01394E10,1.3955289E10,2.2726656E10,2.3535157E10,9.107798E9,6.23172E9,0E0,0E0,0E0,0E0,0E0,0E0,0E0,0E0],"parents":[2147483647,0,0,1,1,2,2,3,3,4,4,5,5,6,6],"right_children":[2,4,6,8,10,12,14,-1,-1,-1,-1,-1,-1,-1,-1],"split_conditions":[-3.6317146E-1,-4.6463084E-1,-3.1799144E-1,2.1109371E-1,1.8608889E-1,8.9596786E-2,3.3803165E-1,3.2669483E1,9.298595E1,4.9777308E0,9.837833E1,-1.1679027E1,-6.529809E1,-3.8355453E0,6.6083336E0],"split_indices":[48,113,235,368,40,89,125,0,0,0,0,0,0,0,0],"split_type":[0,0,0,0,0,0,0,0,0,0,0,0,0,0,0],"sum_hessian":[1.1301E5,2.6781E4,8.6229E4,3.571E3,2.321E4,1.275E3,8.4954E4,2.764E3,8.07E2,2.2938E4,2.72E2,6.88E2,5.87E2,7.8795E4,6.159E3],"tree_param":{"num_deleted":"0","num_feature":"384","num_nodes":"15","size_leaf_vector":"1"}},{"base_weights":[1.2370643E1,1.1642087E3,-3.4712308E2,7.1479736E2,4.98984E3,-3.9179304E3,-2.947142E2,2.9578128E-1,1.9179335E1,2.512154E1,8.6049E1,-9.825558E0,-6.847016E1,-3.4440126E0,1.9654331E1],"categories":[],"categories_nodes":[],"categories_segments":[],"categories_sizes":[],"default_left":[0,0,0,0,0,0,0,0,0,0,0,0,0,0,0],"id":18,"left_children":[1,3,5,7,9,11,13,-1,-1,-1,-1,-1,-1,-1,-1],"loss_changes":[4.676685E10,4.618494E10,1.6107466E10,1.9820458E10,2.5272918E10,1.069774E10,9.527431E9,0E0,0E0,0E0,0E0,0E0,0E0,0E0,0E0],"parents":[2147483647,0,0,1,1,2,2,3,3,4,4,5,5,6,6],"right_children":[2,4,6,8,10,12,14,-1,-1,-1,-1,-1,-1,-1,-1],"split_conditions":[-3.6317146E-1,7.4377394E-1,-3.1799144E-1,9.833324E-2,1.151997E-1,8.4966764E-2,4.0468982E-1,2.9578128E-1,1.9179335E1,2.512154E1,8.6049E1,-9.825558E0,-6.847016E1,-3.4440126E0,1.9654331E1],"split_indices":[48,221,235,176,86,89,125,0,0,0,0,0,0,0,0],"split_type":[0,0,0,0,0,0,0,0,0,0,0,0,0,0,0],"sum_hessian":[1.1294E5,2.6864E4,8.6076E4,2.4041E4,2.823E3,1.244E3,8.4832E4,1.5318E4,8.723E3,1.676E3,1.147E3,6.22E2,6.22E2,8.3008E4,1.824E3],"tree_param":{"num_deleted":"0","num_feature":"384","num_nodes":"15","size_leaf_vector":"1"}},{"base_weights":[1.5303872E1,1.2507504E3,-3.112016E2,1.0894346E3,1.5193355E4,-3.8704727E3,-2.6470807E2,7.328893E1,8.919648E0,1.6788937E2,1.3521812E2,-7.536403E1,-1.3692191E1,5.2347317E1,-2.8724425E0],"categories":[],"categories_nodes":[],"categories_segments":[],"categories_sizes":[],"default_left":[0,0,0,0,0,0,0,0,0,0,0,0,0,0,0],"id":19,"left_children":[1,3,5,7,9,11,13,-1,-1,-1,-1,-1,-1,-1,-1],"loss_changes":[4.5566198E10,5.3092897E10,1.4784562E10,2.8755702E10,4.9309696E8,1.0552859E10,1.0932324E10,0E0,0E0,0E0,0E0,0E0,0E0,0E0,0E0],"parents":[2147483647,0,0,1,1,2,2,3,3,4,4,5,5,6,6],"right_children":[2,4,6,8,10,12,14,-1,-1,-1,-1,-1,-1,-1,-1],"split_conditions":[-3.7155116E-1,4.3969792E-1,-3.1799144E-1,-1.396873E-1,-1.3231337E-1,-1.4283004E-1,-3.210376E-1,7.328893E1,8.919648E0,1.6788937E2,1.3521812E2,-7.536403E1,-1.3692191E1,5.2347317E1,-2.8724425E0],"split_indices":[164,368,235,155,0,151,274,0,0,0,0,0,0,0,0],"split_type":[0,0,0,0,0,0,0,0,0,0,0,0,0,0,0],"sum_hessian":[1.12959E5,2.3612E4,8.9347E4,2.3343E4,2.69E2,1.151E3,8.8196E4,7.15E2,2.2628E4,1.33E2,1.36E2,4.66E2,6.85E2,3.59E2,8.7837E4],"tree_param":{"num_deleted":"0","num_feature":"384","num_nodes":"15","size_leaf_vector":"1"}},{"base_weights":[1.2831263E1,-3.048516E2,1.3102307E3,-3.3606607E2,6.287905E3,8.810511E2,4.9928047E3,3.184162E0,-5.732715E0,3.7361507E1,1.0184431E2,5.489148E1,7.0283256E0,3.641178E1,1.1556446E2],"categories":[],"categories_nodes":[],"categories_segments":[],"categories_sizes":[],"default_left":[0,0,0,0,0,0,0,0,0,0,0,0,0,0,0],"id":20,"left_children":[1,3,5,7,9,11,13,-1,-1,-1,-1,-1,-1,-1,-1],"loss_changes":[4.637764E10,1.8603416E10,3.4976485E10,1.3966957E10,4.1976576E9,1.6276563E10,2.0451295E10,0E0,0E0,0E0,0E0,0E0,0E0,0E0,0E0],"parents":[2147483647,0,0,1,1,2,2,3,3,4,4,5,5,6,6],"right_children":[2,4,6,8,10,12,14,-1,-1,-1,-1,-1,-1,-1,-1],"split_conditions":[2.6475093E-1,3.6877394E-1,3.5389397E-1,-3.0600417E-1,-6.362858E-2,-4.0488538E-1,1.8605815E-1,3.184162E0,-5.732715E0,3.7361507E1,1.0184431E2,5.489148E1,7.0283256E0,3.641178E1,1.1556446E2],"split_indices":[125,137,67,230,2,138,99,0,0,0,0,0,0,0,0],"split_type":[0,0,0,0,0,0,0,0,0,0,0,0,0,0,0],"sum_hessian":[1.12521E5,9.0389E4,2.2132E4,8.9964E4,4.25E2,1.9823E4,2.309E3,2.3932E4,6.6032E4,2.58E2,1.67E2,7.37E2,1.9086E4,1.916E3,3.93E2],"tree_param":{"num_deleted":"0","num_feature":"384","num_nodes":"15","size_leaf_vector":"1"}},{"base_weights":[-6.9734507E0,1.1404724E3,-3.123284E2,7.5989517E3,9.019208E2,-3.7818782E3,-2.658536E2,9.1183E1,3.1115627E1,4.6241965E0,3.0345924E1,-1.0036238E1,-6.1516582E1,5.168177E1,-2.864585E0],"categories":[],"categories_nodes":[],"categories_segments":[],"categories_sizes":[],"default_left":[0,0,0,0,0,0,0,0,0,0,0,0,0,0,0],"id":21,"left_children":[1,3,5,7,9,11,13,-1,-1,-1,-1,-1,-1,-1,-1],"loss_changes":[3.95048E10,3.650419E10,1.4358166E10,5.725942E9,2.1420853E10,7.74302E9,9.840622E9,0E0,0E0,0E0,0E0,0E0,0E0,0E0,0E0],"parents":[2147483647,0,0,1,1,2,2,3,3,4,4,5,5,6,6],"right_children":[2,4,6,8,10,12,14,-1,-1,-1,-1,-1,-1,-1,-1],"split_conditions":[-3.7155116E-1,-1.396873E-1,-3.1799144E-1,1.4231691E-1,7.0813173E-1,8.4966764E-2,-3.210376E-1,9.1183E1,3.1115627E1,4.6241965E0,3.0345924E1,-1.0036238E1,-6.1516582E1,5.168177E1,-2.864585E0],"split_indices":[164,155,235,6,221,89,274,0,0,0,0,0,0,0,0],"split_type":[0,0,0,0,0,0,0,0,0,0,0,0,0,0,0],"sum_hessian":[1.12747E5,2.3697E4,8.905E4,8.43E2,2.2854E4,1.176E3,8.7874E4,6.29E2,2.14E2,1.895E4,3.904E3,5.42E2,6.34E2,3.31E2,8.7543E4],"tree_param":{"num_deleted":"0","num_feature":"384","num_nodes":"15","size_leaf_vector":"1"}},{"base_weights":[7.2275934E0,1.19127E3,-3.0295563E2,8.58987E3,9.2780945E2,-4.4573896E3,-2.6774356E2,1.0839613E2,3.323636E1,1.7734584E0,2.2650461E1,-1.4042561E1,-8.0447334E1,5.056773E1,-2.8783145E0],"categories":[],"categories_nodes":[],"categories_segments":[],"categories_sizes":[],"default_left":[0,0,0,0,0,0,0,0,0,0,0,0,0,0,0],"id":22,"left_children":[1,3,5,7,9,11,13,-1,-1,-1,-1,-1,-1,-1,-1],"loss_changes":[4.152906E10,4.574653E10,1.3106342E10,9.525047E9,2.2747005E10,8.236041E9,9.504707E9,0E0,0E0,0E0,0E0,0E0,0E0,0E0,0E0],"parents":[2147483647,0,0,1,1,2,2,3,3,4,4,5,5,6,6],"right_children":[2,4,6,8,10,12,14,-1,-1,-1,-1,-1,-1,-1,-1],"split_conditions":[-3.7155116E-1,-1.396873E-1,-2.9496935E-1,-3.9614302E-1,5.6253606E-1,5.3775985E-2,-3.210376E-1,1.0839613E2,3.323636E1,1.7734584E0,2.2650461E1,-1.4042561E1,-8.0447334E1,5.056773E1,-2.8783145E0],"split_indices":[164,155,371,353,221,14,274,0,0,0,0,0,0,0,0],"split_type":[0,0,0,0,0,0,0,0,0,0,0,0,0,0,0],"sum_hessian":[1.13073E5,2.3472E4,8.9601E4,8.06E2,2.2666E4,7.52E2,8.8849E4,5.64E2,2.42E2,1.4519E4,8.147E3,4.07E2,3.45E2,3.33E2,8.8516E4],"tree_param":{"num_deleted":"0","num_feature":"384","num_nodes":"15","size_leaf_vector":"1"}},{"base_weights":[-9.201122E0,1.0791593E3,-3.456874E2,6.5034106E2,4.8136953E3,-3.3753743E3,-3.0021384E2,9.840623E0,-1.6131683E1,2.6565798E1,1.0200359E2,-1.0483276E1,-5.9665234E1,8.549543E0,-3.7558517E0],"categories":[],"categories_nodes":[],"categories_segments":[],"categories_sizes":[],"default_left":[0,0,0,0,0,0,0,0,0,0,0,0,0,0,0],"id":23,"left_children":[1,3,5,7,9,11,13,-1,-1,-1,-1,-1,-1,-1,-1],"loss_changes":[4.140648E10,4.2756837E10,1.1897417E10,1.8094477E10,3.1926952E10,7.693703E9,7.4086426E9,0E0,0E0,0E0,0E0,0E0,0E0,0E0,0E0],"parents":[2147483647,0,0,1,1,2,2,3,3,4,4,5,5,6,6],"right_children":[2,4,6,8,10,12,14,-1,-1,-1,-1,-1,-1,-1,-1],"split_conditions":[-3.6317146E-1,7.4377394E-1,-3.1799144E-1,4.3134502E-1,1.6577514E-1,8.9596786E-2,-5.328419E-1,9.840623E0,-1.6131683E1,2.6565798E1,1.0200359E2,-1.0483276E1,-5.9665234E1,8.549543E0,-3.7558517E0],"split_indices":[48,221,235,78,323,89,381,0,0,0,0,0,0,0,0],"split_type":[0,0,0,0,0,0,0,0,0,0,0,0,0,0,0],"sum_hessian":[1.13063E5,2.67E4,8.6363E4,2.3951E4,2.749E3,1.276E3,8.5087E4,2.0874E4,3.077E3,1.964E3,7.85E2,6.73E2,6.03E2,5.211E3,7.9876E4],"tree_param":{"num_deleted":"0","num_feature":"384","num_nodes":"15","size_leaf_vector":"1"}},{"base_weights":[1.3687446E0,-3.0121768E2,1.2479452E3,3.320921E2,-5.34092E2,6.915288E3,9.914889E2,7.762202E1,2.6637137E0,-2.950322E1,-4.4982896E0,4.073301E1,8.977617E1,6.4823527E0,4.10126E1],"categories":[],"categories_nodes":[],"categories_segments":[],"categories_sizes":[],"default_left":[0,0,0,0,0,0,0,0,0,0,0,0,0,0,0],"id":24,"left_children":[1,3,5,7,9,11,13,-1,-1,-1,-1,-1,-1,-1,-1],"loss_changes":[4.256254E10,1.3391356E10,3.2026644E10,1.1918607E10,1.3515192E10,5.5549297E9,2.2506449E10,0E0,0E0,0E0,0E0,0E0,0E0,0E0,0E0],"parents":[2147483647,0,0,1,1,2,2,3,3,4,4,5,5,6,6],"right_children":[2,4,6,8,10,12,14,-1,-1,-1,-1,-1,-1,-1,-1],"split_conditions":[2.6475093E-1,-3.0600417E-1,-4.0488538E-1,-3.3165556E-1,-3.1174493E-1,3.8436344E-1,3.5389397E-1,7.762202E1,2.6637137E0,-2.950322E1,-4.4982896E0,4.073301E1,8.977617E1,6.4823527E0,4.10126E1],"split_indices":[125,230,138,213,20,191,67,0,0,0,0,0,0,0,0],"split_type":[0,0,0,0,0,0,0,0,0,0,0,0,0,0,0],"sum_hessian":[1.12837E5,9.0798E4,2.2039E4,2.4411E4,6.6387E4,9.53E2,2.1086E4,2.13E2,2.4198E4,2.236E3,6.4151E4,4.02E2,5.51E2,1.8991E4,2.095E3],"tree_param":{"num_deleted":"0","num_feature":"384","num_nodes":"15","size_leaf_vector":"1"}},{"base_weights":[7.60568E0,1.2028723E3,-2.9179974E2,8.403172E3,9.2871497E2,-3.5280706E3,-2.481617E2,9.9803444E1,1.9861992E1,4.5545506E0,3.0990702E1,-6.541917E0,-6.3913147E1,1.1859154E1,-3.2012448E0],"categories":[],"categories_nodes":[],"categories_segments":[],"categories_sizes":[],"default_left":[0,0,0,0,0,0,0,0,0,0,0,0,0,0,0],"id":25,"left_children":[1,3,5,7,9,11,13,-1,-1,-1,-1,-1,-1,-1,-1],"loss_changes":[4.0432783E10,4.4668097E10,1.2758766E10,8.380338E9,2.2393369E10,9.886617E9,9.200572E9,0E0,0E0,0E0,0E0,0E0,0E0,0E0,0E0],"parents":[2147483647,0,0,1,1,2,2,3,3,4,4,5,5,6,6],"right_children":[2,4,6,8,10,12,14,-1,-1,-1,-1,-1,-1,-1,-1],"split_conditions":[-3.777932E-1,-1.396873E-1,-3.1799144E-1,9.7671226E-2,7.0813173E-1,8.7199844E-2,-2.0970662E-1,9.9803444E1,1.9861992E1,4.5545506E0,3.0990702E1,-6.541917E0,-6.3913147E1,1.1859154E1,-3.2012448E0],"split_indices":[164,155,235,184,221,89,274,0,0,0,0,0,0,0,0],"split_type":[0,0,0,0,0,0,0,0,0,0,0,0,0,0,0],"sum_hessian":[1.1298E5,2.2631E4,9.0349E4,8.29E2,2.1802E4,1.201E3,8.9148E4,6.65E2,1.64E2,1.79E4,3.902E3,6E2,6.01E2,4.259E3,8.4889E4],"tree_param":{"num_deleted":"0","num_feature":"384","num_nodes":"15","size_leaf_vector":"1"}},{"base_weights":[1.1054332E1,-2.973602E2,1.2731238E3,-3.1574515E2,1.0591243E2,8.37931E2,5.0539346E3,3.5176358E0,-5.5737615E0,3.245063E1,5.265363E0,3.1204374E1,1.13257324E2],"categories":[],"categories_nodes":[],"categories_segments":[],"categories_sizes":[],"default_left":[0,0,0,0,0,0,0,0,0,0,0,0,0],"id":26,"left_children":[1,3,5,7,-1,9,11,-1,-1,-1,-1,-1,-1],"loss_changes":[4.3956146E10,1.8170474E10,3.648539E10,1.4612981E10,0E0,1.4906455E10,2.7722224E10,0E0,0E0,0E0,0E0,0E0,0E0],"parents":[2147483647,0,0,1,1,2,2,3,3,5,5,6,6],"right_children":[2,4,6,8,-1,10,12,-1,-1,-1,-1,-1,-1],"split_conditions":[2.6475093E-1,4.886006E-1,3.5389397E-1,-3.094869E-1,1.0591243E2,1.1440156E-2,1.6577514E-1,3.5176358E0,-5.5737615E0,3.245063E1,5.265363E0,3.1204374E1,1.13257324E2],"split_indices":[125,67,67,230,0,280,323,0,0,0,0,0,0],"split_type":[0,0,0,0,0,0,0,0,0,0,0,0,0],"sum_hessian":[1.12926E5,9.075E4,2.2176E4,9.0598E4,1.52E2,1.9888E4,2.288E3,2.4079E4,6.6519E4,2.277E3,1.7611E4,1.75E3,5.38E2],"tree_param":{"num_deleted":"0","num_feature":"384","num_nodes":"13","size_leaf_vector":"1"}},{"base_weights":[1.3045627E0,1.0782245E3,-3.3286115E2,6.040359E2,4.4087417E3,-3.4280283E3,-2.8724738E2,1.6187952E1,-2.1572957E0,3.017444E1,1.02267265E2,-1.3413963E1,-7.558353E1,-3.6822717E0,7.494879E0],"categories":[],"categories_nodes":[],"categories_segments":[],"categories_sizes":[],"default_left":[0,0,0,0,0,0,0,0,0,0,0,0,0,0,0],"id":27,"left_children":[1,3,5,7,9,11,13,-1,-1,-1,-1,-1,-1,-1,-1],"loss_changes":[4.065304E10,4.2246595E10,1.2170897E10,1.9481793E10,2.695637E10,1.0780183E10,7.133312E9,0E0,0E0,0E0,0E0,0E0,0E0,0E0,0E0],"parents":[2147483647,0,0,1,1,2,2,3,3,4,4,5,5,6,6],"right_children":[2,4,6,8,10,12,14,-1,-1,-1,-1,-1,-1,-1,-1],"split_conditions":[-3.6317146E-1,7.223962E-1,-3.1799144E-1,-3.1584695E-1,2.7018806E-1,-2.020197E-1,3.3803165E-1,1.6187952E1,-2.1572957E0,3.017444E1,1.02267265E2,-1.3413963E1,-7.558353E1,-3.6822717E0,7.494879E0],"split_indices":[48,221,235,230,368,167,125,0,0,0,0,0,0,0,0],"split_type":[0,0,0,0,0,0,0,0,0,0,0,0,0,0,0],"sum_hessian":[1.12964E5,2.6751E4,8.6213E4,2.3418E4,3.333E3,1.251E3,8.4962E4,1.0464E4,1.2954E4,2.691E3,6.42E2,8.32E2,4.19E2,7.8807E4,6.155E3],"tree_param":{"num_deleted":"0","num_feature":"384","num_nodes":"15","size_leaf_vector":"1"}},{"base_weights":[-1.3174902E0,1.121012E3,-2.994735E2,8.601668E3,9.528156E2,-3.2181782E3,-2.603542E2,5.9597797E0,9.840169E1,2.066091E1,2.0917776E0,-1.16370325E1,-6.4174385E1,1.1956624E1,-3.2531316E0],"categories":[],"categories_nodes":[],"categories_segments":[],"categories_sizes":[],"default_left":[0,0,0,0,0,0,0,0,0,0,0,0,0,0,0],"id":28,"left_children":[1,3,5,7,9,11,13,-1,-1,-1,-1,-1,-1,-1,-1],"loss_changes":[3.7853938E10,2.9866953E10,1.0204145E10,5.169795E9,1.9225285E10,7.761583E9,8.3421844E9,0E0,0E0,0E0,0E0,0E0,0E0,0E0,0E0],"parents":[2147483647,0,0,1,1,2,2,3,3,4,4,5,5,6,6],"right_children":[2,4,6,8,10,12,14,-1,-1,-1,-1,-1,-1,-1,-1],"split_conditions":[-3.7155116E-1,-7.506069E-2,-3.1799144E-1,-3.4832306E-2,-8.664932E-2,-2.0886396E-1,-2.0970662E-1,5.9597797E0,9.840169E1,2.066091E1,2.0917776E0,-1.16370325E1,-6.4174385E1,1.1956624E1,-3.2531316E0],"split_indices":[164,301,235,277,210,167,274,0,0,0,0,0,0,0,0],"split_type":[0,0,0,0,0,0,0,0,0,0,0,0,0,0,0],"sum_hessian":[1.1312E5,2.3743E4,8.9377E4,5.21E2,2.3222E4,1.181E3,8.8196E4,7E1,4.51E2,9.299E3,1.3923E4,7.2E2,4.61E2,3.766E3,8.443E4],"tree_param":{"num_deleted":"0","num_feature":"384","num_nodes":"15","size_leaf_vector":"1"}},{"base_weights":[-6.9893246E0,-3.035583E2,1.2116268E3,-3.4537573E3,-2.5796912E2,7.693055E2,4.555347E3,-7.5112047E0,-6.2270092E1,-2.7387788E0,8.752467E1,6.1718533E1,5.5098844E0,1.0143851E2,3.2235893E1],"categories":[],"categories_nodes":[],"categories_segments":[],"categories_sizes":[],"default_left":[0,0,0,0,0,0,0,0,0,0,0,0,0,0,0],"id":29,"left_children":[1,3,5,7,9,11,13,-1,-1,-1,-1,-1,-1,-1,-1],"loss_changes":[4.0857784E10,1.3057298E10,3.272378E10,9.716458E9,1.2850276E10,2.3048126E10,1.9206255E10,0E0,0E0,0E0,0E0,0E0,0E0,0E0,0E0],"parents":[2147483647,0,0,1,1,2,2,3,3,4,4,5,5,6,6],"right_children":[2,4,6,8,10,12,14,-1,-1,-1,-1,-1,-1,-1,-1],"split_conditions":[2.6475093E-1,-3.1799144E-1,3.2794622E-1,8.4966764E-2,4.886006E-1,-4.0488538E-1,-4.0791193E-1,-7.5112047E0,-6.2270092E1,-2.7387788E0,8.752467E1,6.1718533E1,5.5098844E0,1.0143851E2,3.2235893E1],"split_indices":[125,235,67,89,67,138,369,0,0,0,0,0,0,0,0],"split_type":[0,0,0,0,0,0,0,0,0,0,0,0,0,0,0],"sum_hessian":[1.13051E5,9.0924E4,2.2127E4,1.296E3,8.9628E4,1.9543E4,2.584E3,6.57E2,6.39E2,8.9471E4,1.57E2,7.58E2,1.8785E4,4.96E2,2.088E3],"tree_param":{"num_deleted":"0","num_feature":"384","num_nodes":"15","size_leaf_vector":"1"}},{"base_weights":[7.7963924E0,8.9418744E2,-3.3850015E2,5.782492E2,4.0839668E3,-3.165211E3,-2.9241727E2,1.5382041E1,-1.7956741E0,7.911811E1,2.2675318E1,-6.509164E1,-9.855185E0,6.600286E0,-3.384699E0],"categories":[],"categories_nodes":[],"categories_segments":[],"categories_sizes":[],"default_left":[0,0,0,0,0,0,0,0,0,0,0,0,0,0,0],"id":30,"left_children":[1,3,5,7,9,11,13,-1,-1,-1,-1,-1,-1,-1,-1],"loss_changes":[3.4677223E10,3.1981335E10,1.0580985E10,2.1008146E10,1.9867726E10,9.490878E9,3.5062968E9,0E0,0E0,0E0,0E0,0E0,0E0,0E0,0E0],"parents":[2147483647,0,0,1,1,2,2,3,3,4,4,5,5,6,6],"right_children":[2,4,6,8,10,12,14,-1,-1,-1,-1,-1,-1,-1,-1],"split_conditions":[-3.4495836E-1,7.6463026E-1,-3.1799144E-1,-3.1584695E-1,6.1685633E-2,-1.6087294E-4,1.01206034E-1,1.5382041E1,-1.7956741E0,7.911811E1,2.2675318E1,-6.509164E1,-9.855185E0,6.600286E0,-3.384699E0],"split_indices":[48,221,235,230,16,291,174,0,0,0,0,0,0,0,0],"split_type":[0,0,0,0,0,0,0,0,0,0,0,0,0,0,0],"sum_hessian":[1.1297E5,3.1736E4,8.1234E4,2.8877E4,2.859E3,1.302E3,7.9932E4,1.2739E4,1.6138E4,9.19E2,1.94E3,5.13E2,7.89E2,3.686E3,7.6246E4],"tree_param":{"num_deleted":"0","num_feature":"384","num_nodes":"15","size_leaf_vector":"1"}},{"base_weights":[-5.7355285E0,1.01393E3,-3.23532E2,5.784499E2,4.0954631E3,-3.3025215E3,-2.7985397E2,1.5481539E1,-2.0971334E0,2.9081516E1,9.235168E1,-6.40353E1,-5.582936E0,-3.1875937E0,1.5227092E1],"categories":[],"categories_nodes":[],"categories_segments":[],"categories_sizes":[],"default_left":[0,0,0,0,0,0,0,0,0,0,0,0,0,0,0],"id":31,"left_children":[1,3,5,7,9,11,13,-1,-1,-1,-1,-1,-1,-1,-1],"loss_changes":[3.6535235E10,3.5948376E10,1.1183493E10,1.7941152E10,2.0214903E10,1.0565691E10,5.941572E9,0E0,0E0,0E0,0E0,0E0,0E0,0E0,0E0],"parents":[2147483647,0,0,1,1,2,2,3,3,4,4,5,5,6,6],"right_children":[2,4,6,8,10,12,14,-1,-1,-1,-1,-1,-1,-1,-1],"split_conditions":[-3.6317146E-1,7.223962E-1,-3.1799144E-1,-3.1584695E-1,1.1414561E-1,-7.704769E-2,4.0468982E-1,1.5481539E1,-2.0971334E0,2.9081516E1,9.235168E1,-6.40353E1,-5.582936E0,-3.1875937E0,1.5227092E1],"split_indices":[48,221,235,230,120,249,125,0,0,0,0,0,0,0,0],"split_type":[0,0,0,0,0,0,0,0,0,0,0,0,0,0,0],"sum_hessian":[1.12745E5,2.6789E4,8.5956E4,2.3473E4,3.316E3,1.241E3,8.4715E4,1.0524E4,1.2949E4,2.695E3,6.21E2,5.82E2,6.59E2,8.2926E4,1.789E3],"tree_param":{"num_deleted":"0","num_feature":"384","num_nodes":"15","size_leaf_vector":"1"}},{"base_weights":[-8.548312E0,-2.667949E2,1.1798884E3,3.9849957E2,-4.8106738E2,5.294671E2,3.4224553E3,-8.208028E-1,1.1216415E1,-2.6325539E1,-4.104912E0,1.5836296E1,-3.2855392E0,1.8976227E1,6.689695E1],"categories":[],"categories_nodes":[],"categories_segments":[],"categories_sizes":[],"default_left":[0,0,0,0,0,0,0,0,0,0,0,0,0,0,0],"id":32,"left_children":[1,3,5,7,9,11,13,-1,-1,-1,-1,-1,-1,-1,-1],"loss_changes":[3.4666074E10,1.3227663E10,2.9408207E10,7.8559514E9,1.0656068E10,1.4138659E10,2.2570684E10,0E0,0E0,0E0,0E0,0E0,0E0,0E0,0E0],"parents":[2147483647,0,0,1,1,2,2,3,3,4,4,5,5,6,6],"right_children":[2,4,6,8,10,12,14,-1,-1,-1,-1,-1,-1,-1,-1],"split_conditions":[2.778788E-1,-3.116533E-1,6.945989E-1,-1.3320063E-1,-3.1174493E-1,-1.6919138E-1,4.551655E-1,-8.208028E-1,1.1216415E1,-2.6325539E1,-4.104912E0,1.5836296E1,-3.2855392E0,1.8976227E1,6.689695E1],"split_indices":[125,230,221,188,20,151,158,0,0,0,0,0,0,0,0],"split_type":[0,0,0,0,0,0,0,0,0,0,0,0,0,0,0],"sum_hessian":[1.1295E5,9.2788E4,2.0162E4,2.2604E4,7.0184E4,1.563E4,4.532E3,1.358E4,9.024E3,2.228E3,6.7956E4,7.013E3,8.617E3,3.091E3,1.441E3],"tree_param":{"num_deleted":"0","num_feature":"384","num_nodes":"15","size_leaf_vector":"1"}},{"base_weights":[1.871197E0,1.1219877E3,-2.9416858E2,7.391563E3,8.9267786E2,-3.2410344E3,-2.5316362E2,1.070741E2,4.731531E1,8.006358E1,7.2810235E0,-4.1687975E0,-5.912112E1,1.1012213E1,-3.130099E0],"categories":[],"categories_nodes":[],"categories_segments":[],"categories_sizes":[],"default_left":[0,0,0,0,0,0,0,0,0,0,0,0,0,0,0],"id":33,"left_children":[1,3,5,7,9,11,13,-1,-1,-1,-1,-1,-1,-1,-1],"loss_changes":[3.745477E10,3.3939792E10,1.0794676E10,7.2966103E9,2.6663576E10,9.245914E9,7.142498E9,0E0,0E0,0E0,0E0,0E0,0E0,0E0,0E0],"parents":[2147483647,0,0,1,1,2,2,3,3,4,4,5,5,6,6],"right_children":[2,4,6,8,10,12,14,-1,-1,-1,-1,-1,-1,-1,-1],"split_conditions":[-3.7155116E-1,-1.396873E-1,-3.1799144E-1,2.577033E-3,-6.5278605E-2,8.4966764E-2,-2.0970662E-1,1.070741E2,4.731531E1,8.006358E1,7.2810235E0,-4.1687975E0,-5.912112E1,1.1012213E1,-3.130099E0],"split_indices":[164,155,235,20,301,89,274,0,0,0,0,0,0,0,0],"split_type":[0,0,0,0,0,0,0,0,0,0,0,0,0,0,0],"sum_hessian":[1.1295E5,2.3611E4,8.9339E4,8.32E2,2.2779E4,1.225E3,8.8114E4,3.69E2,4.63E2,5.14E2,2.2265E4,5.96E2,6.29E2,3.728E3,8.4386E4],"tree_param":{"num_deleted":"0","num_feature":"384","num_nodes":"15","size_leaf_vector":"1"}},{"base_weights":[-6.247149E0,9.044851E2,-3.6070694E2,1.805756E2,2.2963347E3,-3.2674756E3,-3.1407037E2,1.0879992E1,-4.8911963E0,1.5306394E1,6.564146E1,-2.5799744E1,-1.3864224E2,7.8962836E0,-3.6505013E0],"categories":[],"categories_nodes":[],"categories_segments":[],"categories_sizes":[],"default_left":[0,0,0,0,0,0,0,0,0,0,0,0,0,0,0],"id":34,"left_children":[1,3,5,7,9,11,13,-1,-1,-1,-1,-1,-1,-1,-1],"loss_changes":[3.6468752E10,3.1889273E10,1.1022854E10,1.2654004E10,3.5377422E10,9.318527E9,4.5036754E9,0E0,0E0,0E0,0E0,0E0,0E0,0E0,0E0],"parents":[2147483647,0,0,1,1,2,2,3,3,4,4,5,5,6,6],"right_children":[2,4,6,8,10,12,14,-1,-1,-1,-1,-1,-1,-1,-1],"split_conditions":[-3.4495836E-1,5.6253606E-1,-3.1799144E-1,-3.094869E-1,3.455587E-1,-1.11249164E-1,-5.413183E-1,1.0879992E1,-4.8911963E0,1.5306394E1,6.564146E1,-2.5799744E1,-1.3864224E2,7.8962836E0,-3.6505013E0],"split_indices":[48,221,235,230,212,167,381,0,0,0,0,0,0,0,0],"split_type":[0,0,0,0,0,0,0,0,0,0,0,0,0,0,0],"sum_hessian":[1.12968E5,3.1649E4,8.1319E4,2.0821E4,1.0828E4,1.283E3,8.0036E4,8.841E3,1.198E4,9.182E3,1.646E3,1.206E3,7.7E1,3.533E3,7.6503E4],"tree_param":{"num_deleted":"0","num_feature":"384","num_nodes":"15","size_leaf_vector":"1"}},{"base_weights":[-1.2739972E0,-2.7858182E2,1.12721E3,-2.9674722E2,9.62138E1,5.437966E2,3.2201265E3,3.0346959E0,-5.142629E0,1.5336459E1,-2.783953E0,1.3759474E1,5.7806072E1],"categories":[],"categories_nodes":[],"categories_segments":[],"categories_sizes":[],"default_left":[0,0,0,0,0,0,0,0,0,0,0,0,0],"id":35,"left_children":[1,3,5,7,-1,9,11,-1,-1,-1,-1,-1,-1],"loss_changes":[3.5326255E10,1.6299303E10,2.7188267E10,1.1809391E10,0E0,1.4173557E10,2.2912561E10,0E0,0E0,0E0,0E0,0E0,0E0],"parents":[2147483647,0,0,1,1,2,2,3,3,5,5,6,6],"right_children":[2,4,6,8,-1,10,12,-1,-1,-1,-1,-1,-1],"split_conditions":[2.6475093E-1,4.886006E-1,6.945989E-1,-3.079463E-1,9.62138E1,-1.6919138E-1,-2.0081703E-1,3.0346959E0,-5.142629E0,1.5336459E1,-2.783953E0,1.3759474E1,5.7806072E1],"split_indices":[125,67,221,230,0,151,251,0,0,0,0,0,0],"split_type":[0,0,0,0,0,0,0,0,0,0,0,0,0],"sum_hessian":[1.12884E5,9.0617E4,2.2267E4,9.0452E4,1.65E2,1.7414E4,4.853E3,2.406E4,6.6392E4,7.901E3,9.513E3,2.822E3,2.031E3],"tree_param":{"num_deleted":"0","num_feature":"384","num_nodes":"13","size_leaf_vector":"1"}},{"base_weights":[-2.9734E0,1.1764396E3,-2.9837985E2,8.0079985E3,9.2643933E2,-3.2050476E3,-2.6021857E2,9.568649E1,1.0575012E1,8.7984146E1,7.3299494E0,-2.7788261E1,-1.8328987E2,-2.0033839E0,-1.8779144E1],"categories":[],"categories_nodes":[],"categories_segments":[],"categories_sizes":[],"default_left":[0,0,0,0,0,0,0,0,0,0,0,0,0,0,0],"id":36,"left_children":[1,3,5,7,9,11,13,-1,-1,-1,-1,-1,-1,-1,-1],"loss_changes":[3.947268E10,3.874975E10,1.004894E10,8.678572E9,3.3331986E10,7.516844E9,8.662424E9,0E0,0E0,0E0,0E0,0E0,0E0,0E0,0E0],"parents":[2147483647,0,0,1,1,2,2,3,3,4,4,5,5,6,6],"right_children":[2,4,6,8,10,12,14,-1,-1,-1,-1,-1,-1,-1,-1],"split_conditions":[-3.777932E-1,-1.396873E-1,-3.1799144E-1,9.7671226E-2,-7.506069E-2,-7.104739E-2,4.15492E-1,9.568649E1,1.0575012E1,8.7984146E1,7.3299494E0,-2.7788261E1,-1.8328987E2,-2.0033839E0,-1.8779144E1],"split_indices":[164,155,235,184,301,204,78,0,0,0,0,0,0,0,0],"split_type":[0,0,0,0,0,0,0,0,0,0,0,0,0,0,0],"sum_hessian":[1.13293E5,2.2692E4,9.0601E4,8E2,2.1892E4,1.173E3,8.9428E4,6.53E2,1.47E2,5.24E2,2.1368E4,1.142E3,3.1E1,8.6237E4,3.191E3],"tree_param":{"num_deleted":"0","num_feature":"384","num_nodes":"15","size_leaf_vector":"1"}},{"base_weights":[-2.6484783E0,1.2264442E3,-2.408532E2,6.533119E3,7.5591583E2,-3.5471866E2,6.3194574E2,8.433337E1,1.8445713E1,1.5465966E1,-6.980445E0,-2.3292515E1,-3.0432832E0,-2.0527647E0,1.2179941E1],"categories":[],"categories_nodes":[],"categories_segments":[],"categories_sizes":[],"default_left":[0,0,0,0,0,0,0,0,0,0,0,0,0,0,0],"id":37,"left_children":[1,3,5,7,9,11,13,-1,-1,-1,-1,-1,-1,-1,-1],"loss_changes":[3.2995824E10,4.56791E10,9.382248E9,1.3259248E10,1.9322722E10,8.308311E9,5.3459113E9,0E0,0E0,0E0,0E0,0E0,0E0,0E0,0E0],"parents":[2147483647,0,0,1,1,2,2,3,3,4,4,5,5,6,6],"right_children":[2,4,6,8,10,12,14,-1,-1,-1,-1,-1,-1,-1,-1],"split_conditions":[-4.2100993E-1,-2.3329343E-1,1.3271216E-1,-2.1391642E-1,2.681379E-1,-5.3362012E-2,-1.12253696E-1,8.433337E1,1.8445713E1,1.5465966E1,-6.980445E0,-2.3292515E1,-3.0432832E0,-2.0527647E0,1.2179941E1],"split_indices":[48,142,340,59,291,267,79,0,0,0,0,0,0,0,0],"split_type":[0,0,0,0,0,0,0,0,0,0,0,0,0,0,0],"sum_hessian":[1.12698E5,1.8295E4,9.4403E4,1.489E3,1.6806E4,8.3509E4,1.0894E4,1.059E3,4.3E2,1.0886E4,5.92E3,2.077E3,8.1432E4,4.486E3,6.408E3],"tree_param":{"num_deleted":"0","num_feature":"384","num_nodes":"15","size_leaf_vector":"1"}},{"base_weights":[7.347645E0,-2.6193112E2,1.1006849E3,-2.932236E2,4.5371025E3,5.076904E2,3.222248E3,2.6247356E0,-4.9717903E0,-1.3398132E0,5.9626537E1,2.4362434E1,1.3235058E-1,2.505685E1,9.573212E1],"categories":[],"categories_nodes":[],"categories_segments":[],"categories_sizes":[],"default_left":[0,0,0,0,0,0,0,0,0,0,0,0,0,0,0],"id":38,"left_children":[1,3,5,7,9,11,13,-1,-1,-1,-1,-1,-1,-1,-1],"loss_changes":[3.3186763E10,1.3583931E10,2.802325E10,1.0184749E10,3.902896E9,1.6602804E10,2.212053E10,0E0,0E0,0E0,0E0,0E0,0E0,0E0,0E0],"parents":[2147483647,0,0,1,1,2,2,3,3,4,4,5,5,6,6],"right_children":[2,4,6,8,10,12,14,-1,-1,-1,-1,-1,-1,-1,-1],"split_conditions":[2.6475093E-1,3.5744593E-1,6.945989E-1,-3.0600417E-1,-1.920539E-1,8.413178E-2,1.0080949E-1,2.6247356E0,-4.9717903E0,-1.3398132E0,5.9626537E1,2.4362434E1,1.3235058E-1,2.505685E1,9.573212E1],"split_indices":[125,137,221,230,12,280,43,0,0,0,0,0,0,0,0],"split_type":[0,0,0,0,0,0,0,0,0,0,0,0,0,0,0],"sum_hessian":[1.1272E5,9.0445E4,2.2275E4,8.986E4,5.85E2,1.741E4,4.865E3,2.4126E4,6.5734E4,1.37E2,4.48E2,3.552E3,1.3858E4,4.373E3,4.92E2],"tree_param":{"num_deleted":"0","num_feature":"384","num_nodes":"15","size_leaf_vector":"1"}},{"base_weights":[1.8499343E0,-2.749246E2,1.1155988E3,-3.012689E3,-2.3421022E2,7.1590326E2,4.6038867E3,-7.8055706E0,-6.0511345E1,2.7565475E0,-4.2090907E0,5.013828E1,5.5671678E0,2.9756252E1,1.0066773E2],"categories":[],"categories_nodes":[],"categories_segments":[],"categories_sizes":[],"default_left":[0,0,0,0,0,0,0,0,0,0,0,0,0,0,0],"id":39,"left_children":[1,3,5,7,9,11,13,-1,-1,-1,-1,-1,-1,-1,-1],"loss_changes":[3.4802246E10,1.0078972E10,3.132836E10,8.981709E9,8.4820326E9,1.3792159E10,2.0517507E10,0E0,0E0,0E0,0E0,0E0,0E0,0E0,0E0],"parents":[2147483647,0,0,1,1,2,2,3,3,4,4,5,5,6,6],"right_children":[2,4,6,8,10,12,14,-1,-1,-1,-1,-1,-1,-1,-1],"split_conditions":[2.607836E-1,-3.1799144E-1,3.5389397E-1,-4.2785743E-1,-3.094869E-1,-4.0488538E-1,1.6577514E-1,-7.8055706E0,-6.0511345E1,2.7565475E0,-4.2090907E0,5.013828E1,5.5671678E0,2.9756252E1,1.0066773E2],"split_indices":[125,235,67,271,230,138,323,0,0,0,0,0,0,0,0],"split_type":[0,0,0,0,0,0,0,0,0,0,0,0,0,0,0],"sum_hessian":[1.12898E5,9.0427E4,2.2471E4,1.324E3,8.9103E4,2.0162E4,2.309E3,7.64E2,5.6E2,2.3882E4,6.5221E4,7.19E2,1.9443E4,1.78E3,5.29E2],"tree_param":{"num_deleted":"0","num_feature":"384","num_nodes":"15","size_leaf_vector":"1"}},{"base_weights":[1.1928164E1,9.642132E2,-2.8314545E2,3.1013572E3,4.5494687E2,-2.8953083E3,-2.4473201E2,1.269449E1,5.806631E1,7.8423834E0,-1.5658758E1,-2.4329142E1,-1.8394994E2,-2.8468652E0,1.6184246E1],"categories":[],"categories_nodes":[],"categories_segments":[],"categories_sizes":[],"default_left":[0,0,0,0,0,0,0,0,0,0,0,0,0,0,0],"id":40,"left_children":[1,3,5,7,9,11,13,-1,-1,-1,-1,-1,-1,-1,-1],"loss_changes":[3.1697541E10,2.904189E10,8.640755E9,2.5440727E10,1.4342119E10,8.899614E9,6.318535E9,0E0,0E0,0E0,0E0,0E0,0E0,0E0,0E0],"parents":[2147483647,0,0,1,1,2,2,3,3,4,4,5,5,6,6],"right_children":[2,4,6,8,10,12,14,-1,-1,-1,-1,-1,-1,-1,-1],"split_conditions":[-3.6317146E-1,-3.9304808E-1,-3.1799144E-1,-6.535076E-2,4.15492E-1,-7.104739E-2,4.0468982E-1,1.269449E1,5.806631E1,7.8423834E0,-1.5658758E1,-2.4329142E1,-1.8394994E2,-2.8468652E0,1.6184246E1],"split_indices":[48,113,235,371,78,204,125,0,0,0,0,0,0,0,0],"split_type":[0,0,0,0,0,0,0,0,0,0,0,0,0,0,0],"sum_hessian":[1.12803E5,2.6684E4,8.6119E4,5.134E3,2.155E4,1.247E3,8.4872E4,3.062E3,2.072E3,1.8531E4,3.019E3,1.212E3,3.5E1,8.3091E4,1.781E3],"tree_param":{"num_deleted":"0","num_feature":"384","num_nodes":"15","size_leaf_vector":"1"}},{"base_weights":[-1.5849918E0,9.117552E2,-2.8719946E2,3.2068325E3,4.3529388E2,-2.8510251E3,-2.4799367E2,1.2985166E1,5.8482952E1,6.8445816E0,-1.9129745E1,-5.041311E0,-5.2558037E1,-2.865855E0,1.908888E1],"categories":[],"categories_nodes":[],"categories_segments":[],"categories_sizes":[],"default_left":[0,0,0,0,0,0,0,0,0,0,0,0,0,0,0],"id":41,"left_children":[1,3,5,7,9,11,13,-1,-1,-1,-1,-1,-1,-1,-1],"loss_changes":[2.9467884E10,2.9425103E10,8.649069E9,2.3310901E10,1.304037E10,7.311665E9,7.0556406E9,0E0,0E0,0E0,0E0,0E0,0E0,0E0,0E0],"parents":[2147483647,0,0,1,1,2,2,3,3,4,4,5,5,6,6],"right_children":[2,4,6,8,10,12,14,-1,-1,-1,-1,-1,-1,-1,-1],"split_conditions":[-3.6317146E-1,-4.3618175E-1,-3.1799144E-1,-6.961451E-2,5.3402656E-1,8.4966764E-2,4.1517597E-1,1.2985166E1,5.8482952E1,6.8445816E0,-1.9129745E1,-5.041311E0,-5.2558037E1,-2.865855E0,1.908888E1],"split_indices":[48,113,235,371,78,89,125,0,0,0,0,0,0,0,0],"split_type":[0,0,0,0,0,0,0,0,0,0,0,0,0,0,0],"sum_hessian":[1.12961E5,2.6909E4,8.6052E4,4.625E3,2.2284E4,1.295E3,8.4757E4,2.686E3,1.939E3,2.0147E4,2.137E3,6.56E2,6.39E2,8.3268E4,1.489E3],"tree_param":{"num_deleted":"0","num_feature":"384","num_nodes":"15","size_leaf_vector":"1"}},{"base_weights":[1.1380851E0,-2.690572E2,1.1103313E3,-2.865116E2,9.89281E3,6.217281E3,8.805203E2,2.887313E0,-4.9483385E0,6.2493183E1,1.2359485E2,2.7560432E1,8.722164E1,7.215905E0,6.915313E1],"categories":[],"categories_nodes":[],"categories_segments":[],"categories_sizes":[],"default_left":[0,0,0,0,0,0,0,0,0,0,0,0,0,0,0],"id":42,"left_children":[1,3,5,7,9,11,13,-1,-1,-1,-1,-1,-1,-1,-1],"loss_changes":[3.3901924E10,1.6136705E10,2.5999876E10,1.0882081E10,1.3247816E9,8.2471404E9,2.0332909E10,0E0,0E0,0E0,0E0,0E0,0E0,0E0,0E0],"parents":[2147483647,0,0,1,1,2,2,3,3,4,4,5,5,6,6],"right_children":[2,4,6,8,10,12,14,-1,-1,-1,-1,-1,-1,-1,-1],"split_conditions":[2.6475093E-1,4.886006E-1,-4.0488538E-1,-3.079026E-1,-2.2696234E-1,3.8436344E-1,9.7265705E-2,2.887313E0,-4.9483385E0,6.2493183E1,1.2359485E2,2.7560432E1,8.722164E1,7.215905E0,6.915313E1],"split_indices":[125,67,138,230,0,191,72,0,0,0,0,0,0,0,0],"split_type":[0,0,0,0,0,0,0,0,0,0,0,0,0,0,0],"sum_hessian":[1.13118E5,9.0961E4,2.2157E4,9.0806E4,1.55E2,9.53E2,2.1204E4,2.4142E4,6.6664E4,6.4E1,9.1E1,4.01E2,5.52E2,2.0661E4,5.43E2],"tree_param":{"num_deleted":"0","num_feature":"384","num_nodes":"15","size_leaf_vector":"1"}},{"base_weights":[-3.3715987E0,1.01209546E3,-2.7181818E2,7.9975386E3,8.041621E2,-3.0789705E3,-2.3387845E2,9.433311E1,9.307216E-1,6.8912606E0,8.061715E1,-1.4884828E2,-2.4070007E1,-3.123066E0,7.954451E0],"categories":[],"categories_nodes":[],"categories_segments":[],"categories_sizes":[],"default_left":[0,0,0,0,0,0,0,0,0,0,0,0,0,0,0],"id":43,"left_children":[1,3,5,7,9,11,13,-1,-1,-1,-1,-1,-1,-1,-1],"loss_changes":[3.0810737E10,3.43192E10,9.519972E9,7.750496E9,1.9154936E10,9.420524E9,7.120695E9,0E0,0E0,0E0,0E0,0E0,0E0,0E0,0E0],"parents":[2147483647,0,0,1,1,2,2,3,3,4,4,5,5,6,6],"right_children":[2,4,6,8,10,12,14,-1,-1,-1,-1,-1,-1,-1,-1],"split_conditions":[-3.7155116E-1,-4.117285E-2,-3.1799144E-1,1.3998592E-1,4.886006E-1,-3.781746E-1,8.774486E-2,9.433311E1,9.307216E-1,6.8912606E0,8.061715E1,-1.4884828E2,-2.4070007E1,-3.123066E0,7.954451E0],"split_indices":[164,301,235,177,67,240,104,0,0,0,0,0,0,0,0],"split_type":[0,0,0,0,0,0,0,0,0,0,0,0,0,0,0],"sum_hessian":[1.13024E5,2.3631E4,8.9393E4,6.82E2,2.2949E4,1.191E3,8.8202E4,5.77E2,1.05E2,2.2592E4,3.57E2,6.3E1,1.128E3,8.1958E4,6.244E3],"tree_param":{"num_deleted":"0","num_feature":"384","num_nodes":"15","size_leaf_vector":"1"}},{"base_weights":[2.487378E1,2.323446E3,-1.2148992E2,4.443446E3,-5.445567E1,5.601753E2,-3.712328E2,2.6089409E1,7.68096E1,-6.976241E1,1.2401592E0,4.9908752E0,1.2305985E2,-4.030151E0,2.9933868E1],"categories":[],"categories_nodes":[],"categories_segments":[],"categories_sizes":[],"default_left":[0,0,0,0,0,0,0,0,0,0,0,0,0,0,0],"id":44,"left_children":[1,3,5,7,9,11,13,-1,-1,-1,-1,-1,-1,-1,-1],"loss_changes":[3.792845E10,3.402297E10,1.8044054E10,2.117116E10,3.931724E9,2.0385913E10,8.2962903E9,0E0,0E0,0E0,0E0,0E0,0E0,0E0,0E0],"parents":[2147483647,0,0,1,1,2,2,3,3,4,4,5,5,6,6],"right_children":[2,4,6,8,10,12,14,-1,-1,-1,-1,-1,-1,-1,-1],"split_conditions":[-4.6463084E-1,-2.6380777E-1,-3.116533E-1,4.6269706E-1,5.217887E-2,4.8763108E-1,4.8791742E-1,2.6089409E1,7.68096E1,-6.976241E1,1.2401592E0,4.9908752E0,1.2305985E2,-4.030151E0,2.9933868E1],"split_indices":[113,230,230,158,33,137,361,0,0,0,0,0,0,0,0],"split_type":[0,0,0,0,0,0,0,0,0,0,0,0,0,0,0],"sum_hessian":[1.12737E5,6.748E3,1.05989E5,3.567E3,3.181E3,2.8419E4,7.757E4,2.278E3,1.289E3,7.9E1,3.102E3,2.8273E4,1.46E2,7.6845E4,7.25E2],"tree_param":{"num_deleted":"0","num_feature":"384","num_nodes":"15","size_leaf_vector":"1"}},{"base_weights":[9.750619E0,-2.316742E2,1.1226597E3,3.349067E2,-4.465572E2,8.214331E2,4.7126357E3,4.8170887E1,2.6645627E0,-4.7850056E0,4.994242E1,3.0594995E0,2.2911337E1,8.0808334E1,2.2523573E1],"categories":[],"categories_nodes":[],"categories_segments":[],"categories_sizes":[],"default_left":[0,0,0,0,0,0,0,0,0,0,0,0,0,0,0],"id":45,"left_children":[1,3,5,7,9,11,13,-1,-1,-1,-1,-1,-1,-1,-1],"loss_changes":[3.0280663E10,1.1275287E10,2.1721379E10,7.811872E9,1.1672015E10,1.4042281E10,1.2867625E10,0E0,0E0,0E0,0E0,0E0,0E0,0E0,0E0],"parents":[2147483647,0,0,1,1,2,2,3,3,4,4,5,5,6,6],"right_children":[2,4,6,8,10,12,14,-1,-1,-1,-1,-1,-1,-1,-1],"split_conditions":[2.778788E-1,-3.094869E-1,2.5445023E-1,-3.297094E-1,3.6877394E-1,5.492177E-1,-4.9064934E-1,4.8170887E1,2.6645627E0,-4.7850056E0,4.994242E1,3.0594995E0,2.2911337E1,8.0808334E1,2.2523573E1],"split_indices":[125,230,316,213,137,180,128,0,0,0,0,0,0,0,0],"split_type":[0,0,0,0,0,0,0,0,0,0,0,0,0,0,0],"sum_hessian":[1.12698E5,9.2609E4,2.0089E4,2.5465E4,6.7144E4,1.8535E4,1.554E3,3.82E2,2.5083E4,6.6753E4,3.91E2,1.3723E4,4.812E3,6.55E2,8.99E2],"tree_param":{"num_deleted":"0","num_feature":"384","num_nodes":"15","size_leaf_vector":"1"}},{"base_weights":[1.1676999E1,9.623107E2,-2.3970503E2,2.8115106E2,2.273485E3,-2.9794973E3,-2.033141E2,-1.541315E0,1.8688057E1,9.306108E1,1.7864388E1,-1.5098578E1,-7.3682144E1,-1.5553112E0,-1.9248226E1],"categories":[],"categories_nodes":[],"categories_segments":[],"categories_sizes":[],"default_left":[0,0,0,0,0,0,0,0,0,0,0,0,0,0,0],"id":46,"left_children":[1,3,5,7,9,11,13,-1,-1,-1,-1,-1,-1,-1,-1],"loss_changes":[2.694889E10,2.106268E10,8.89156E9,1.0727206E10,2.7600867E10,7.5287276E9,7.2399555E9,0E0,0E0,0E0,0E0,0E0,0E0,0E0,0E0],"parents":[2147483647,0,0,1,1,2,2,3,3,4,4,5,5,6,6],"right_children":[2,4,6,8,10,12,14,-1,-1,-1,-1,-1,-1,-1,-1],"split_conditions":[-3.7155116E-1,5.864383E-1,-3.1799144E-1,3.1650996E-1,-4.7758732E-2,-1.3494435E-1,1.3809109E-1,-1.541315E0,1.8688057E1,9.306108E1,1.7864388E1,-1.5098578E1,-7.3682144E1,-1.5553112E0,-1.9248226E1],"split_indices":[164,221,235,270,32,105,218,0,0,0,0,0,0,0,0],"split_type":[0,0,0,0,0,0,0,0,0,0,0,0,0,0,0],"sum_hessian":[1.12768E5,2.3583E4,8.9185E4,1.5521E4,8.062E3,1.168E3,8.8017E4,1.2182E4,3.339E3,5.21E2,7.541E3,8.76E2,2.92E2,8.5641E4,2.376E3],"tree_param":{"num_deleted":"0","num_feature":"384","num_nodes":"15","size_leaf_vector":"1"}},{"base_weights":[9.054636E0,-2.2418604E2,1.0864205E3,3.6294022E2,-4.4839343E2,5.927779E3,8.383159E2,7.35499E1,3.0779488E0,8.116108E1,-4.712339E0,8.089655E1,3.691121E1,4.196912E0,2.4234383E1],"categories":[],"categories_nodes":[],"categories_segments":[],"categories_sizes":[],"default_left":[0,0,0,0,0,0,0,0,0,0,0,0,0,0,0],"id":47,"left_children":[1,3,5,7,9,11,13,-1,-1,-1,-1,-1,-1,-1,-1],"loss_changes":[2.8419385E10,1.223842E10,2.417084E10,9.904029E9,1.3164579E10,4.713648E9,1.2704386E10,0E0,0E0,0E0,0E0,0E0,0E0,0E0,0E0],"parents":[2147483647,0,0,1,1,2,2,3,3,4,4,5,5,6,6],"right_children":[2,4,6,8,10,12,14,-1,-1,-1,-1,-1,-1,-1,-1],"split_conditions":[2.778788E-1,-3.094869E-1,-4.0488538E-1,-3.3165556E-1,-8.5901874E-1,-2.799459E-1,6.945989E-1,7.35499E1,3.0779488E0,8.116108E1,-4.712339E0,8.089655E1,3.691121E1,4.196912E0,2.4234383E1],"split_indices":[125,230,138,213,241,172,221,0,0,0,0,0,0,0,0],"split_type":[0,0,0,0,0,0,0,0,0,0,0,0,0,0,0],"sum_hessian":[1.13094E5,9.2968E4,2.0126E4,2.5691E4,6.7277E4,9.8E2,1.9146E4,2E2,2.5491E4,1.78E2,6.7099E4,4.97E2,4.83E2,1.5147E4,3.999E3],"tree_param":{"num_deleted":"0","num_feature":"384","num_nodes":"15","size_leaf_vector":"1"}},{"base_weights":[-2.5038786E0,-2.4376372E2,9.953239E2,4.0054548E3,-2.6819992E2,6.4536597E2,4.061676E3,8.6148094E1,6.4964604E0,2.4374433E0,-4.517936E0,2.7798553E1,3.7466393E0,8.858682E1,2.5507961E1],"categories":[],"categories_nodes":[],"categories_segments":[],"categories_sizes":[],"default_left":[0,0,0,0,0,0,0,0,0,0,0,0,0,0,0],"id":48,"left_children":[1,3,5,7,9,11,13,-1,-1,-1,-1,-1,-1,-1,-1],"loss_changes":[2.7183403E10,9.442975E9,2.3590433E10,8.0378235E9,8.498005E9,1.1402053E10,1.6299225E10,0E0,0E0,0E0,0E0,0E0,0E0,0E0,0E0],"parents":[2147483647,0,0,1,1,2,2,3,3,4,4,5,5,6,6],"right_children":[2,4,6,8,10,12,14,-1,-1,-1,-1,-1,-1,-1,-1],"split_conditions":[2.6475093E-1,-2.197366E-1,3.5389397E-1,-2.233503E-1,-3.079026E-1,1.1440156E-2,1.1132892E-1,8.6148094E1,6.4964604E0,2.4374433E0,-4.517936E0,2.7798553E1,3.7466393E0,8.858682E1,2.5507961E1],"split_indices":[125,163,67,3,230,280,16,0,0,0,0,0,0,0,0],"split_type":[0,0,0,0,0,0,0,0,0,0,0,0,0,0,0],"sum_hessian":[1.12916E5,9.0931E4,2.1985E4,5.19E2,9.0412E4,1.9734E4,2.251E3,2.18E2,3.01E2,2.3865E4,6.6547E4,2.22E3,1.7514E4,5.38E2,1.713E3],"tree_param":{"num_deleted":"0","num_feature":"384","num_nodes":"15","size_leaf_vector":"1"}},{"base_weights":[1.2926731E0,9.524386E2,-2.9294482E2,3.7772795E3,5.189427E2,-2.7794011E3,-2.5603482E2,1.4452354E1,5.9573025E1,4.2582006E0,8.232409E1,-5.053347E0,-5.26382E1,-2.9166293E0,1.3765642E1],"categories":[],"categories_nodes":[],"categories_segments":[],"categories_sizes":[],"default_left":[0,0,0,0,0,0,0,0,0,0,0,0,0,0,0],"id":49,"left_children":[1,3,5,7,9,11,13,-1,-1,-1,-1,-1,-1,-1,-1],"loss_changes":[3.161778E10,3.2683911E10,7.918016E9,1.8044359E10,1.6619356E10,7.127302E9,4.945884E9,0E0,0E0,0E0,0E0,0E0,0E0,0E0,0E0],"parents":[2147483647,0,0,1,1,2,2,3,3,4,4,5,5,6,6],"right_children":[2,4,6,8,10,12,14,-1,-1,-1,-1,-1,-1,-1,-1],"split_conditions":[-3.6317146E-1,-4.6463084E-1,-3.1799144E-1,-7.965839E-2,1.8608889E-1,8.4966764E-2,4.0468982E-1,1.4452354E1,5.9573025E1,4.2582006E0,8.232409E1,-5.053347E0,-5.26382E1,-2.9166293E0,1.3765642E1],"split_indices":[48,113,235,371,40,89,125,0,0,0,0,0,0,0,0],"split_type":[0,0,0,0,0,0,0,0,0,0,0,0,0,0,0],"sum_hessian":[1.12974E5,2.6691E4,8.6283E4,3.55E3,2.3141E4,1.261E3,8.5022E4,1.716E3,1.834E3,2.2866E4,2.75E2,6.59E2,6.02E2,8.3207E4,1.815E3],"tree_param":{"num_deleted":"0","num_feature":"384","num_nodes":"15","size_leaf_vector":"1"}},{"base_weights":[-7.6834707E0,1.5538607E3,-1.5773819E2,4.4695218E2,3.736269E3,1.9005814E2,-4.8170093E2,3.1253336E1,1.3977457E0,2.1858057E1,6.1429855E1,9.06288E0,-1.5518477E0,-4.125016E0,-2.5896032E1],"categories":[],"categories_nodes":[],"categories_segments":[],"categories_sizes":[],"default_left":[0,0,0,0,0,0,0,0,0,0,0,0,0,0,0],"id":50,"left_children":[1,3,5,7,9,11,13,-1,-1,-1,-1,-1,-1,-1,-1],"loss_changes":[2.6425352E10,2.3882615E10,1.159291E10,5.397553E9,1.2401365E10,1.226984E10,7.769177E9,0E0,0E0,0E0,0E0,0E0,0E0,0E0,0E0],"parents":[2147483647,0,0,1,1,2,2,3,3,4,4,5,5,6,6],"right_children":[2,4,6,8,10,12,14,-1,-1,-1,-1,-1,-1,-1,-1],"split_conditions":[-4.963717E-1,6.5746015E-1,-2.3819326E-1,-2.7382974E-2,4.551655E-1,-3.4495836E-1,6.5806067E-1,3.1253336E1,1.3977457E0,2.1858057E1,6.1429855E1,9.06288E0,-1.5518477E0,-4.125016E0,-2.5896032E1],"split_indices":[164,221,230,306,158,48,359,0,0,0,0,0,0,0,0],"split_type":[0,0,0,0,0,0,0,0,0,0,0,0,0,0,0],"sum_hessian":[1.12774E5,9.886E3,1.02888E5,6.56E3,3.326E3,4.9619E4,5.3269E4,6.74E2,5.886E3,2.024E3,1.302E3,1.6138E4,3.3481E4,5.1577E4,1.692E3],"tree_param":{"num_deleted":"0","num_feature":"384","num_nodes":"15","size_leaf_vector":"1"}},{"base_weights":[-1.5479497E0,8.5297754E2,-2.689068E2,4.8810706E2,3.4357737E3,-2.721926E3,-2.3170384E2,7.987401E0,-1.5090986E1,2.0375158E1,6.0261864E1,-7.4266556E1,-1.2671445E1,-2.707642E0,1.5775845E1],"categories":[],"categories_nodes":[],"categories_segments":[],"categories_sizes":[],"default_left":[0,0,0,0,0,0,0,0,0,0,0,0,0,0,0],"id":51,"left_children":[1,3,5,7,9,11,13,-1,-1,-1,-1,-1,-1,-1,-1],"loss_changes":[2.586132E10,2.542013E10,7.867767E9,1.4666177E10,1.2081795E10,8.806117E9,6.00277E9,0E0,0E0,0E0,0E0,0E0,0E0,0E0,0E0],"parents":[2147483647,0,0,1,1,2,2,3,3,4,4,5,5,6,6],"right_children":[2,4,6,8,10,12,14,-1,-1,-1,-1,-1,-1,-1,-1],"split_conditions":[-3.6317146E-1,7.223962E-1,-3.1799144E-1,4.3134502E-1,4.7893584E-2,-1.3579862E-1,4.0468982E-1,7.987401E0,-1.5090986E1,2.0375158E1,6.0261864E1,-7.4266556E1,-1.2671445E1,-2.707642E0,1.5775845E1],"split_indices":[48,221,235,78,43,313,125,0,0,0,0,0,0,0,0],"split_type":[0,0,0,0,0,0,0,0,0,0,0,0,0,0,0],"sum_hessian":[1.13194E5,2.6975E4,8.6219E4,2.3637E4,3.338E3,1.287E3,8.4932E4,2.0456E4,3.181E3,2.169E3,1.169E3,3.03E2,9.84E2,8.3138E4,1.794E3],"tree_param":{"num_deleted":"0","num_feature":"384","num_nodes":"15","size_leaf_vector":"1"}},{"base_weights":[-3.589913E0,9.281241E2,-2.5066571E2,6.379484E3,7.308939E2,4.971771E3,-2.708762E2,4.1797203E1,9.8447975E1,1.2701089E0,1.8378721E1,5.0091003E1,-9.410573E0,-3.0522326E1,-2.3409233E0],"categories":[],"categories_nodes":[],"categories_segments":[],"categories_sizes":[],"default_left":[0,0,0,0,0,0,0,0,0,0,0,0,0,0,0],"id":52,"left_children":[1,3,5,7,9,11,13,-1,-1,-1,-1,-1,-1,-1,-1],"loss_changes":[2.5985659E10,2.5433926E10,9.418443E9,6.2553436E9,1.5264629E10,8.064256E7,9.092311E9,0E0,0E0,0E0,0E0,0E0,0E0,0E0,0E0],"parents":[2147483647,0,0,1,1,2,2,3,3,4,4,5,5,6,6],"right_children":[2,4,6,8,10,12,14,-1,-1,-1,-1,-1,-1,-1,-1],"split_conditions":[-3.7155116E-1,-1.396873E-1,-3.210376E-1,-1.1254229E-1,3.4272254E-1,-4.8697032E-2,-3.1799144E-1,4.1797203E1,9.8447975E1,1.2701089E0,1.8378721E1,5.0091003E1,-9.410573E0,-3.0522326E1,-2.3409233E0],"split_indices":[164,155,274,262,92,0,235,0,0,0,0,0,0,0,0],"split_type":[0,0,0,0,0,0,0,0,0,0,0,0,0,0,0],"sum_hessian":[1.12879E5,2.3659E4,8.922E4,8.25E2,2.2834E4,3.43E2,8.8877E4,5.06E2,3.19E2,1.4775E4,8.059E3,3.41E2,2E0,1.159E3,8.7718E4],"tree_param":{"num_deleted":"0","num_feature":"384","num_nodes":"15","size_leaf_vector":"1"}},{"base_weights":[-2.3834215E1,8.334067E2,-2.8910864E2,5.0425775E2,3.7141475E3,-2.749302E3,-2.5104938E2,1.4414416E1,-2.72047E0,1.9459522E1,5.6902283E1,-4.4134936E0,-5.007928E1,6.832632E0,-3.1147027E0],"categories":[],"categories_nodes":[],"categories_segments":[],"categories_sizes":[],"default_left":[0,0,0,0,0,0,0,0,0,0,0,0,0,0,0],"id":53,"left_children":[1,3,5,7,9,11,13,-1,-1,-1,-1,-1,-1,-1,-1],"loss_changes":[2.5685764E10,2.5308236E10,8.076014E9,1.7430075E10,9.552265E9,6.847413E9,4.795585E9,0E0,0E0,0E0,0E0,0E0,0E0,0E0,0E0],"parents":[2147483647,0,0,1,1,2,2,3,3,4,4,5,5,6,6],"right_children":[2,4,6,8,10,12,14,-1,-1,-1,-1,-1,-1,-1,-1],"split_conditions":[-3.6317146E-1,7.4377394E-1,-3.1799144E-1,-3.1584695E-1,-6.961451E-2,8.4966764E-2,-5.328419E-1,1.4414416E1,-2.72047E0,1.9459522E1,5.6902283E1,-4.4134936E0,-5.007928E1,6.832632E0,-3.1147027E0],"split_indices":[48,221,235,230,371,89,381,0,0,0,0,0,0,0,0],"split_type":[0,0,0,0,0,0,0,0,0,0,0,0,0,0,0],"sum_hessian":[1.1295E5,2.6692E4,8.6258E4,2.3956E4,2.736E3,1.313E3,8.4945E4,1.0853E4,1.3103E4,1.445E3,1.291E3,6.5E2,6.63E2,5.159E3,7.9786E4],"tree_param":{"num_deleted":"0","num_feature":"384","num_nodes":"15","size_leaf_vector":"1"}},{"base_weights":[5.424842E-1,1.9293855E3,-1.2341948E2,3.6785835E3,-7.368743E1,-1.4676128E2,5.3280415E3,2.2948078E1,6.2433926E1,-6.945549E1,1.38087E0,4.3244524E0,-3.440555E0,1.2490837E1,8.362751E1],"categories":[],"categories_nodes":[],"categories_segments":[],"categories_sizes":[],"default_left":[0,0,0,0,0,0,0,0,0,0,0,0,0,0,0],"id":54,"left_children":[1,3,5,7,9,11,13,-1,-1,-1,-1,-1,-1,-1,-1],"loss_changes":[2.6976336E10,2.3871465E10,1.3490227E10,1.2893823E10,4.6243983E9,1.2062811E10,5.5846144E9,0E0,0E0,0E0,0E0,0E0,0E0,0E0,0E0],"parents":[2147483647,0,0,1,1,2,2,3,3,4,4,5,5,6,6],"right_children":[2,4,6,8,10,12,14,-1,-1,-1,-1,-1,-1,-1,-1],"split_conditions":[-4.6463084E-1,-2.6380777E-1,4.886006E-1,4.6269706E-1,5.217887E-2,-3.1584695E-1,-2.3752052E-1,2.2948078E1,6.2433926E1,-6.945549E1,1.38087E0,4.3244524E0,-3.440555E0,1.2490837E1,8.362751E1],"split_indices":[113,230,67,158,33,230,0,0,0,0,0,0,0,0,0],"split_type":[0,0,0,0,0,0,0,0,0,0,0,0,0,0,0],"sum_hessian":[1.12821E5,6.812E3,1.06009E5,3.636E3,3.176E3,1.05558E5,4.51E2,2.363E3,1.273E3,9.4E1,3.082E3,2.682E4,7.8738E4,1.93E2,2.58E2],"tree_param":{"num_deleted":"0","num_feature":"384","num_nodes":"15","size_leaf_vector":"1"}},{"base_weights":[1.5105376E1,8.654057E2,-2.4901558E2,4.7139917E2,3.6842937E3,-2.881661E2,1.5767404E3,1.3793353E1,-2.5808165E0,1.908958E1,6.1236774E1,-2.4102974E1,-2.5598438E0,1.1764142E1,4.0800827E1],"categories":[],"categories_nodes":[],"categories_segments":[],"categories_sizes":[],"default_left":[0,0,0,0,0,0,0,0,0,0,0,0,0,0,0],"id":55,"left_children":[1,3,5,7,9,11,13,-1,-1,-1,-1,-1,-1,-1,-1],"loss_changes":[2.536138E10,2.9723976E10,6.1593257E9,1.5553663E10,1.4201754E10,5.7603123E9,1.8080957E9,0E0,0E0,0E0,0E0,0E0,0E0,0E0,0E0],"parents":[2147483647,0,0,1,1,2,2,3,3,4,4,5,5,6,6],"right_children":[2,4,6,8,10,12,14,-1,-1,-1,-1,-1,-1,-1,-1],"split_conditions":[-3.6317146E-1,7.223962E-1,4.0468982E-1,-3.1584695E-1,-2.0081703E-1,-3.1799144E-1,1.7277245E-1,1.3793353E1,-2.5808165E0,1.908958E1,6.1236774E1,-2.4102974E1,-2.5598438E0,1.1764142E1,4.0800827E1],"split_indices":[48,221,125,230,251,235,6,0,0,0,0,0,0,0,0],"split_type":[0,0,0,0,0,0,0,0,0,0,0,0,0,0,0],"sum_hessian":[1.12925E5,2.6763E4,8.6162E4,2.3482E4,3.281E3,8.4354E4,1.808E3,1.0461E4,1.3021E4,1.9E3,1.381E3,1.259E3,8.3095E4,1.56E3,2.48E2],"tree_param":{"num_deleted":"0","num_feature":"384","num_nodes":"15","size_leaf_vector":"1"}},{"base_weights":[-2.245027E1,-2.3759949E2,8.617934E2,2.6946378E2,-4.2252783E2,5.884137E3,6.395608E2,-1.042893E0,8.283745E0,6.8602066E1,-4.424979E0,7.615229E1,2.7265896E1,3.3828814E0,2.4003025E1],"categories":[],"categories_nodes":[],"categories_segments":[],"categories_sizes":[],"default_left":[0,0,0,0,0,0,0,0,0,0,0,0,0,0,0],"id":56,"left_children":[1,3,5,7,9,11,13,-1,-1,-1,-1,-1,-1,-1,-1],"loss_changes":[2.1476315E10,8.514089E9,2.4653752E10,5.068914E9,9.679239E9,5.095416E9,1.1222198E10,0E0,0E0,0E0,0E0,0E0,0E0,0E0,0E0],"parents":[2147483647,0,0,1,1,2,2,3,3,4,4,5,5,6,6],"right_children":[2,4,6,8,10,12,14,-1,-1,-1,-1,-1,-1,-1,-1],"split_conditions":[2.6475093E-1,-3.079463E-1,-4.0488538E-1,8.104549E-2,-8.5901874E-1,1.0517948E-1,2.8955597E-1,-1.042893E0,8.283745E0,6.8602066E1,-4.424979E0,7.615229E1,2.7265896E1,3.3828814E0,2.4003025E1],"split_indices":[125,230,138,249,241,228,67,0,0,0,0,0,0,0,0],"split_type":[0,0,0,0,0,0,0,0,0,0,0,0,0,0,0],"sum_hessian":[1.12886E5,9.0795E4,2.2091E4,2.4264E4,6.6531E4,9.35E2,2.1156E4,1.4541E4,9.723E3,1.81E2,6.635E4,6.03E2,3.32E2,1.8066E4,3.09E3],"tree_param":{"num_deleted":"0","num_feature":"384","num_nodes":"15","size_leaf_vector":"1"}},{"base_weights":[1.4493181E1,-2.2880357E2,1.0078994E3,4.4091533E3,-2.548127E2,5.163705E2,2.8119958E3,8.8612495E1,1.157598E1,2.280403E0,-4.2889214E0,2.905579E1,1.6977416E0,1.8177818E1,7.0433754E1],"categories":[],"categories_nodes":[],"categories_segments":[],"categories_sizes":[],"default_left":[0,0,0,0,0,0,0,0,0,0,0,0,0,0,0],"id":57,"left_children":[1,3,5,7,9,11,13,-1,-1,-1,-1,-1,-1,-1,-1],"loss_changes":[2.7244296E10,1.0923735E10,1.9663464E10,7.3002424E9,7.568643E9,1.4432303E10,1.9961545E10,0E0,0E0,0E0,0E0,0E0,0E0,0E0,0E0],"parents":[2147483647,0,0,1,1,2,2,3,3,4,4,5,5,6,6],"right_children":[2,4,6,8,10,12,14,-1,-1,-1,-1,-1,-1,-1,-1],"split_conditions":[2.6475093E-1,-2.197366E-1,6.945989E-1,-2.941602E-1,-3.0600417E-1,1.6058617E-3,7.547897E-2,8.8612495E1,1.157598E1,2.280403E0,-4.2889214E0,2.905579E1,1.6977416E0,1.8177818E1,7.0433754E1],"split_indices":[125,163,221,5,230,280,120,0,0,0,0,0,0,0,0],"split_type":[0,0,0,0,0,0,0,0,0,0,0,0,0,0,0],"sum_hessian":[1.12721E5,9.0546E4,2.2175E4,5.04E2,9.0042E4,1.7428E4,4.747E3,2.12E2,2.92E2,2.386E4,6.6182E4,2.207E3,1.5221E4,3.845E3,9.02E2],"tree_param":{"num_deleted":"0","num_feature":"384","num_nodes":"15","size_leaf_vector":"1"}},{"base_weights":[7.3877983E0,-2.6804495E1,6.343388E3,-1.9396564E2,9.398562E2,9.641022E3,1.6727394E3,3.6018138E0,-4.027521E0,1.9218422E1,2.5963783E0,7.129925E1,1.0925245E2,1.3156125E1,2.4824593E1],"categories":[],"categories_nodes":[],"categories_segments":[],"categories_sizes":[],"default_left":[0,0,0,0,0,0,0,0,0,0,0,0,0,0,0],"id":58,"left_children":[1,3,5,7,9,11,13,-1,-1,-1,-1,-1,-1,-1,-1],"loss_changes":[2.4459094E10,1.814572E10,9.31754E9,1.1077112E10,1.1058331E10,1.06691174E9,6.96055E7,0E0,0E0,0E0,0E0,0E0,0E0,0E0,0E0],"parents":[2147483647,0,0,1,1,2,2,3,3,4,4,5,5,6,6],"right_children":[2,4,6,8,10,12,14,-1,-1,-1,-1,-1,-1,-1,-1],"split_conditions":[4.886006E-1,2.8775185E-1,6.2066242E-2,-3.094869E-1,-3.807036E-1,-3.7968963E-1,-2.3752052E-1,3.6018138E0,-4.027521E0,1.9218422E1,2.5963783E0,7.129925E1,1.0925245E2,1.3156125E1,2.4824593E1],"split_indices":[67,125,2,230,164,5,0,0,0,0,0,0,0,0,0],"split_type":[0,0,0,0,0,0,0,0,0,0,0,0,0,0,0],"sum_hessian":[1.12899E5,1.12294E5,6.05E2,9.5739E4,1.6555E4,3.54E2,2.51E2,2.62E4,6.9539E4,6.774E3,9.781E3,1.22E2,2.32E2,1.76E2,7.5E1],"tree_param":{"num_deleted":"0","num_feature":"384","num_nodes":"15","size_leaf_vector":"1"}},{"base_weights":[2.9735754E0,9.0866614E2,-2.3580815E2,3.1576678E2,2.5133987E3,-1.2166473E3,-1.5257477E2,3.0840172E-2,2.0656626E1,8.214688E1,1.9331543E1,-4.289514E0,-3.0551514E1,8.259421E0,-2.4252493E0],"categories":[],"categories_nodes":[],"categories_segments":[],"categories_sizes":[],"default_left":[0,0,0,0,0,0,0,0,0,0,0,0,0,0,0],"id":59,"left_children":[1,3,5,7,9,11,13,-1,-1,-1,-1,-1,-1,-1,-1],"loss_changes":[2.4428182E10,2.242191E10,7.297403E9,9.416656E9,2.101728E10,1.0124379E10,7.2526874E9,0E0,0E0,0E0,0E0,0E0,0E0,0E0,0E0],"parents":[2147483647,0,0,1,1,2,2,3,3,4,4,5,5,6,6],"right_children":[2,4,6,8,10,12,14,-1,-1,-1,-1,-1,-1,-1,-1],"split_conditions":[-3.7155116E-1,4.1300285E-1,-4.6410406E-1,8.597596E-3,-4.8023713E-1,4.518363E-1,-4.0104327E-1,3.0840172E-2,2.0656626E1,8.214688E1,1.9331543E1,-4.289514E0,-3.0551514E1,8.259421E0,-2.4252493E0],"split_indices":[164,92,293,0,332,31,48,0,0,0,0,0,0,0,0],"split_type":[0,0,0,0,0,0,0,0,0,0,0,0,0,0,0],"sum_hessian":[1.12954E5,2.3566E4,8.9388E4,1.7209E4,6.357E3,6.991E3,8.2397E4,1.4601E4,2.608E3,5.86E2,5.771E3,4.895E3,2.096E3,6.936E3,7.5461E4],"tree_param":{"num_deleted":"0","num_feature":"384","num_nodes":"15","size_leaf_vector":"1"}},{"base_weights":[-1.6581686E1,-2.4252554E2,9.090876E2,3.5551765E3,-2.643497E2,4.3343152E2,2.629622E3,7.638152E1,8.652138E0,-2.593809E1,-2.3002992E0,1.3398856E1,-3.0704265E0,1.5373289E1,5.319841E1],"categories":[],"categories_nodes":[],"categories_segments":[],"categories_sizes":[],"default_left":[0,0,0,0,0,0,0,0,0,0,0,0,0,0,0],"id":60,"left_children":[1,3,5,7,9,11,13,-1,-1,-1,-1,-1,-1,-1,-1],"loss_changes":[2.363137E10,7.52825E9,1.814077E10,5.693596E9,7.2187346E9,1.1657914E10,1.4099599E10,0E0,0E0,0E0,0E0,0E0,0E0,0E0,0E0],"parents":[2147483647,0,0,1,1,2,2,3,3,4,4,5,5,6,6],"right_children":[2,4,6,8,10,12,14,-1,-1,-1,-1,-1,-1,-1,-1],"split_conditions":[2.6475093E-1,-2.197366E-1,6.945989E-1,-2.233503E-1,-3.1799144E-1,-1.6919138E-1,4.2249016E-2,7.638152E1,8.652138E0,-2.593809E1,-2.3002992E0,1.3398856E1,-3.0704265E0,1.5373289E1,5.319841E1],"split_indices":[125,163,221,3,235,151,371,0,0,0,0,0,0,0,0],"split_type":[0,0,0,0,0,0,0,0,0,0,0,0,0,0,0],"sum_hessian":[1.12986E5,9.0819E4,2.2167E4,5.18E2,9.0301E4,1.7367E4,4.8E3,2.05E2,3.13E2,1.31E3,8.8991E4,7.808E3,9.559E3,3.415E3,1.385E3],"tree_param":{"num_deleted":"0","num_feature":"384","num_nodes":"15","size_leaf_vector":"1"}},{"base_weights":[-1.6805113E1,1.9060104E3,-1.1108185E2,8.9401526E2,6.3054834E3,-1.7951425E2,1.8893553E3,3.90816E0,2.2020048E1,8.052657E1,1.5525874E1,3.0948882E0,-3.8091724E0,1.6882189E1,1.00782265E2],"categories":[],"categories_nodes":[],"categories_segments":[],"categories_sizes":[],"default_left":[0,0,0,0,0,0,0,0,0,0,0,0,0,0,0],"id":61,"left_children":[1,3,5,7,9,11,13,-1,-1,-1,-1,-1,-1,-1,-1],"loss_changes":[2.0431917E10,2.3448791E10,1.470872E10,2.81878E9,8.167072E9,1.0231899E10,5.836711E9,0E0,0E0,0E0,0E0,0E0,0E0,0E0,0E0],"parents":[2147483647,0,0,1,1,2,2,3,3,4,4,5,5,6,6],"right_children":[2,4,6,8,10,12,14,-1,-1,-1,-1,-1,-1,-1,-1],"split_conditions":[3.8379073E-1,3.6598054E-1,4.0468982E-1,-3.457622E-1,7.573049E-2,-3.0600417E-1,2.2507735E-1,3.90816E0,2.2020048E1,8.052657E1,1.5525874E1,3.0948882E0,-3.8091724E0,1.6882189E1,1.00782265E2],"split_indices":[28,67,125,50,2,230,54,0,0,0,0,0,0,0,0],"split_type":[0,0,0,0,0,0,0,0,0,0,0,0,0,0,0],"sum_hessian":[1.12709E5,5.267E3,1.07442E5,4.283E3,9.84E2,1.03889E5,3.553E3,3.094E3,1.189E3,7.19E2,2.65E2,3.0306E4,7.3583E4,3.469E3,8.4E1],"tree_param":{"num_deleted":"0","num_feature":"384","num_nodes":"15","size_leaf_vector":"1"}},{"base_weights":[-3.2978752E0,1.914678E3,-1.2010743E2,4.6685015E3,5.774435E2,-1.4141722E2,5.317361E3,2.8524397E1,7.70697E1,-1.6524507E-1,1.68909E1,3.9943538E0,-3.2553372E0,1.1543832E1,8.288604E1],"categories":[],"categories_nodes":[],"categories_segments":[],"categories_sizes":[],"default_left":[0,0,0,0,0,0,0,0,0,0,0,0,0,0,0],"id":62,"left_children":[1,3,5,7,9,11,13,-1,-1,-1,-1,-1,-1,-1,-1],"loss_changes":[2.526588E10,2.3837864E10,1.2317985E10,1.1654197E10,2.8781993E9,1.0544346E10,5.123659E9,0E0,0E0,0E0,0E0,0E0,0E0,0E0,0E0],"parents":[2147483647,0,0,1,1,2,2,3,3,4,4,5,5,6,6],"right_children":[2,4,6,8,10,12,14,-1,-1,-1,-1,-1,-1,-1,-1],"split_conditions":[-4.6783182E-1,-4.832484E-1,4.886006E-1,3.8932487E-2,-6.799047E-2,-3.1584695E-1,-2.3752052E-1,2.8524397E1,7.70697E1,-1.6524507E-1,1.68909E1,3.9943538E0,-3.2553372E0,1.1543832E1,8.288604E1],"split_indices":[113,241,67,43,159,230,0,0,0,0,0,0,0,0,0],"split_type":[0,0,0,0,0,0,0,0,0,0,0,0,0,0,0],"sum_hessian":[1.12773E5,6.473E3,1.063E5,2.115E3,4.358E3,1.05886E5,4.14E2,1.325E3,7.9E2,2.841E3,1.517E3,2.6891E4,7.8995E4,1.73E2,2.41E2],"tree_param":{"num_deleted":"0","num_feature":"384","num_nodes":"15","size_leaf_vector":"1"}},{"base_weights":[2.489004E0,9.038065E2,-2.2324908E2,6.0413237E3,7.095298E2,-1.2875896E3,-1.3941049E2,1.0378587E2,4.4730663E1,9.0764254E-1,1.8591547E1,-3.9335072E0,-3.2866455E1,7.573045E0,-2.1826572E0],"categories":[],"categories_nodes":[],"categories_segments":[],"categories_sizes":[],"default_left":[0,0,0,0,0,0,0,0,0,0,0,0,0,0,0],"id":63,"left_children":[1,3,5,7,9,11,13,-1,-1,-1,-1,-1,-1,-1,-1],"loss_changes":[2.2864413E10,2.246095E10,8.019083E9,5.531173E9,1.5428264E10,1.1729157E10,5.89093E9,0E0,0E0,0E0,0E0,0E0,0E0,0E0,0E0],"parents":[2147483647,0,0,1,1,2,2,3,3,4,4,5,5,6,6],"right_children":[2,4,6,8,10,12,14,-1,-1,-1,-1,-1,-1,-1,-1],"split_conditions":[-3.777932E-1,-1.396873E-1,-4.8067868E-1,1.4043562E-1,3.45578E-1,4.518363E-1,-4.0973186E-1,1.0378587E2,4.4730663E1,9.0764254E-1,1.8591547E1,-3.9335072E0,-3.2866455E1,7.573045E0,-2.1826572E0],"split_indices":[164,155,293,174,92,31,48,0,0,0,0,0,0,0,0],"split_type":[0,0,0,0,0,0,0,0,0,0,0,0,0,0,0],"sum_hessian":[1.12375E5,2.2507E4,8.9868E4,8.19E2,2.1688E4,6.561E3,8.3307E4,2.16E2,6.03E2,1.41E4,7.588E3,4.534E3,2.027E3,6.733E3,7.6574E4],"tree_param":{"num_deleted":"0","num_feature":"384","num_nodes":"15","size_leaf_vector":"1"}},{"base_weights":[-1.0970087E1,7.9646454E2,-2.620738E2,2.666473E3,3.5240436E2,-2.626294E3,-2.2736702E2,1.7423937E1,6.3334282E1,-9.4605535E-1,1.5560024E1,-1.4094152E1,-7.151984E1,-2.6253366E0,1.3481267E1],"categories":[],"categories_nodes":[],"categories_segments":[],"categories_sizes":[],"default_left":[0,0,0,0,0,0,0,0,0,0,0,0,0,0,0],"id":64,"left_children":[1,3,5,7,9,11,13,-1,-1,-1,-1,-1,-1,-1,-1],"loss_changes":[2.2911953E10,2.225949E10,7.0724147E9,1.7419702E10,1.1655818E10,6.8574177E9,4.7071606E9,0E0,0E0,0E0,0E0,0E0,0E0,0E0,0E0],"parents":[2147483647,0,0,1,1,2,2,3,3,4,4,5,5,6,6],"right_children":[2,4,6,8,10,12,14,-1,-1,-1,-1,-1,-1,-1,-1],"split_conditions":[-3.6317146E-1,-3.9304808E-1,-3.1799144E-1,2.2368011E-1,2.2793898E-1,-8.6910084E-2,4.0468982E-1,1.7423937E1,6.3334282E1,-9.4605535E-1,1.5560024E1,-1.4094152E1,-7.151984E1,-2.6253366E0,1.3481267E1],"split_indices":[48,113,235,368,192,204,125,0,0,0,0,0,0,0,0],"split_type":[0,0,0,0,0,0,0,0,0,0,0,0,0,0,0],"sum_hessian":[1.13004E5,2.6806E4,8.6198E4,5.143E3,2.1663E4,1.246E3,8.4952E4,4.109E3,1.034E3,1.5797E4,5.866E3,9.83E2,2.63E2,8.3098E4,1.854E3],"tree_param":{"num_deleted":"0","num_feature":"384","num_nodes":"15","size_leaf_vector":"1"}},{"base_weights":[3.3852036E0,8.194044E2,-2.491238E2,4.7924265E2,3.203974E3,-2.6242622E3,-2.13712E2,-9.678986E0,8.517382E0,2.2035854E1,7.6334694E1,-9.708578E1,-1.8244234E1,7.5726237E0,-2.778655E0],"categories":[],"categories_nodes":[],"categories_segments":[],"categories_sizes":[],"default_left":[0,0,0,0,0,0,0,0,0,0,0,0,0,0,0],"id":65,"left_children":[1,3,5,7,9,11,13,-1,-1,-1,-1,-1,-1,-1,-1],"loss_changes":[2.3217136E10,2.1596676E10,7.2368404E9,1.2562931E10,1.4712545E10,7.1445033E9,5.2816507E9,0E0,0E0,0E0,0E0,0E0,0E0,0E0,0E0],"parents":[2147483647,0,0,1,1,2,2,3,3,4,4,5,5,6,6],"right_children":[2,4,6,8,10,12,14,-1,-1,-1,-1,-1,-1,-1,-1],"split_conditions":[-3.6317146E-1,7.223962E-1,-3.1799144E-1,-2.932925E-1,1.0080949E-1,-1.727904E-1,-5.328419E-1,-9.678986E0,8.517382E0,2.2035854E1,7.6334694E1,-9.708578E1,-1.8244234E1,7.5726237E0,-2.778655E0],"split_indices":[48,221,235,116,43,313,381,0,0,0,0,0,0,0,0],"split_type":[0,0,0,0,0,0,0,0,0,0,0,0,0,0,0],"sum_hessian":[1.12674E5,2.6626E4,8.6048E4,2.3303E4,3.323E3,1.263E3,8.4785E4,4.77E3,1.8533E4,2.712E3,6.11E2,1.27E2,1.136E3,5.254E3,7.9531E4],"tree_param":{"num_deleted":"0","num_feature":"384","num_nodes":"15","size_leaf_vector":"1"}},{"base_weights":[6.4199424E0,7.580174E2,-2.8627686E2,1.22410645E2,1.8020745E3,-2.791714E3,-2.4596237E2,9.420664E0,-7.075536E0,1.5025145E1,6.670888E1,-1.4826516E1,-7.2562775E1,-2.8200057E0,6.9284167E0],"categories":[],"categories_nodes":[],"categories_segments":[],"categories_sizes":[],"default_left":[0,0,0,0,0,0,0,0,0,0,0,0,0,0,0],"id":66,"left_children":[1,3,5,7,9,11,13,-1,-1,-1,-1,-1,-1,-1,-1],"loss_changes":[2.4881766E10,2.103687E10,8.2214564E9,1.3406363E10,1.748616E10,7.5226634E9,2.7107108E9,0E0,0E0,0E0,0E0,0E0,0E0,0E0,0E0],"parents":[2147483647,0,0,1,1,2,2,3,3,4,4,5,5,6,6],"right_children":[2,4,6,8,10,12,14,-1,-1,-1,-1,-1,-1,-1,-1],"split_conditions":[-3.4495836E-1,7.920416E-2,-3.1799144E-1,1.3088922E-1,1.163045E-1,-1.3494435E-1,3.2314226E-1,9.420664E0,-7.075536E0,1.5025145E1,6.670888E1,-1.4826516E1,-7.2562775E1,-2.8200057E0,6.9284167E0],"split_indices":[48,176,235,244,77,105,357,0,0,0,0,0,0,0,0],"split_type":[0,0,0,0,0,0,0,0,0,0,0,0,0,0,0],"sum_hessian":[1.13102E5,3.17E4,8.1402E4,1.9705E4,1.1995E4,1.288E3,8.0114E4,9.914E3,9.791E3,1.1301E4,6.94E2,9.97E2,2.91E2,7.7153E4,2.961E3],"tree_param":{"num_deleted":"0","num_feature":"384","num_nodes":"15","size_leaf_vector":"1"}},{"base_weights":[-8.017744E0,-2.192867E2,9.655143E2,2.6850443E2,-4.0373642E2,5.0403936E3,7.609448E2,9.105089E0,-1.4428035E0,-2.3498875E1,-3.3698525E0,1.2620257E1,5.390636E1,1.6276317E0,1.7594727E1],"categories":[],"categories_nodes":[],"categories_segments":[],"categories_sizes":[],"default_left":[0,0,0,0,0,0,0,0,0,0,0,0,0,0,0],"id":67,"left_children":[1,3,5,7,9,11,13,-1,-1,-1,-1,-1,-1,-1,-1],"loss_changes":[2.3240696E10,8.3538263E9,1.6792287E10,6.751518E9,8.751361E9,1.2675789E9,1.1460129E10,0E0,0E0,0E0,0E0,0E0,0E0,0E0,0E0],"parents":[2147483647,0,0,1,1,2,2,3,3,4,4,5,5,6,6],"right_children":[2,4,6,8,10,12,14,-1,-1,-1,-1,-1,-1,-1,-1],"split_conditions":[2.778788E-1,-3.094869E-1,-4.0488538E-1,-2.6355544E-1,-3.1174493E-1,6.529902E-2,7.3025584E-1,9.105089E0,-1.4428035E0,-2.3498875E1,-3.3698525E0,1.2620257E1,5.390636E1,1.6276317E0,1.7594727E1],"split_indices":[125,230,138,48,20,126,263,0,0,0,0,0,0,0,0],"split_type":[0,0,0,0,0,0,0,0,0,0,0,0,0,0,0],"sum_hessian":[1.12994E5,9.2846E4,2.0148E4,2.5475E4,6.7371E4,9.62E2,1.9186E4,9.969E3,1.5506E4,2.233E3,6.5138E4,8.2E1,8.8E2,1.1999E4,7.187E3],"tree_param":{"num_deleted":"0","num_feature":"384","num_nodes":"15","size_leaf_vector":"1"}},{"base_weights":[-3.61099E0,1.3707756E3,-1.4159668E2,1.0948594E3,7.589962E3,-1.6213756E2,6.7416104E3,3.105463E1,6.095431E0,7.001832E1,8.881613E1,-1.8774264E0,3.0510895E1,4.701939E0,7.0871895E1],"categories":[],"categories_nodes":[],"categories_segments":[],"categories_sizes":[],"default_left":[0,0,0,0,0,0,0,0,0,0,0,0,0,0,0],"id":68,"left_children":[1,3,5,7,9,11,13,-1,-1,-1,-1,-1,-1,-1,-1],"loss_changes":[2.1390713E10,1.7650786E10,1.4493554E10,9.614409E9,2.6978304E8,8.40891E9,6.576855E8,0E0,0E0,0E0,0E0,0E0,0E0,0E0,0E0],"parents":[2147483647,0,0,1,1,2,2,3,3,4,4,5,5,6,6],"right_children":[2,4,6,8,10,12,14,-1,-1,-1,-1,-1,-1,-1,-1],"split_conditions":[-2.0970662E-1,8.86119E-1,4.886006E-1,7.264986E-2,-1.4862625E-1,9.7265705E-2,-2.3752052E-1,3.105463E1,6.095431E0,7.001832E1,8.881613E1,-1.8774264E0,3.0510895E1,4.701939E0,7.0871895E1],"split_indices":[274,221,67,149,0,72,0,0,0,0,0,0,0,0,0],"split_type":[0,0,0,0,0,0,0,0,0,0,0,0,0,0,0],"sum_hessian":[1.12791E5,1.029E4,1.02501E5,9.854E3,4.36E2,1.02197E5,3.04E2,1.915E3,7.939E3,3.04E2,1.32E2,1.0139E5,8.07E2,1.6E1,2.88E2],"tree_param":{"num_deleted":"0","num_feature":"384","num_nodes":"15","size_leaf_vector":"1"}},{"base_weights":[-1.7340816E1,-1.9342703E2,8.9666547E2,-2.0620119E2,7.0727725E3,5.316144E3,6.9923E2,2.717754E0,-3.8920162E0,7.7048836E1,6.410224E1,2.4598585E1,7.188766E1,3.6591928E0,2.3781168E1],"categories":[],"categories_nodes":[],"categories_segments":[],"categories_sizes":[],"default_left":[0,0,0,0,0,0,0,0,0,0,0,0,0,0,0],"id":69,"left_children":[1,3,5,7,9,11,13,-1,-1,-1,-1,-1,-1,-1,-1],"loss_changes":[1.8153521E10,8.779779E9,1.5894364E10,8.258054E9,2.0131328E7,4.148988E9,9.759516E9,0E0,0E0,0E0,0E0,0E0,0E0,0E0,0E0],"parents":[2147483647,0,0,1,1,2,2,3,3,4,4,5,5,6,6],"right_children":[2,4,6,8,10,12,14,-1,-1,-1,-1,-1,-1,-1,-1],"split_conditions":[2.833681E-1,4.886006E-1,3.4764194E-1,-3.094869E-1,-2.2696234E-1,1.0080949E-1,1.7012319E-1,2.717754E0,-3.8920162E0,7.7048836E1,6.410224E1,2.4598585E1,7.188766E1,3.6591928E0,2.3781168E1],"split_indices":[125,67,28,230,0,43,89,0,0,0,0,0,0,0,0],"split_type":[0,0,0,0,0,0,0,0,0,0,0,0,0,0,0],"sum_hessian":[1.12792E5,9.4573E4,1.8219E4,9.4408E4,1.65E2,7.78E2,1.7441E4,2.6138E4,6.827E4,7.9E1,8.6E1,3.09E2,4.69E2,1.4553E4,2.888E3],"tree_param":{"num_deleted":"0","num_feature":"384","num_nodes":"15","size_leaf_vector":"1"}},{"base_weights":[2.0375349E1,7.966018E2,-2.2072122E2,4.6820123E2,3.1243313E3,-1.9356298E3,-1.6375432E2,1.3124056E1,-2.1860213E0,1.8732347E1,6.2434612E1,-8.886226E0,-4.682514E1,6.7727203E0,-2.191314E0],"categories":[],"categories_nodes":[],"categories_segments":[],"categories_sizes":[],"default_left":[0,0,0,0,0,0,0,0,0,0,0,0,0,0,0],"id":70,"left_children":[1,3,5,7,9,11,13,-1,-1,-1,-1,-1,-1,-1,-1],"loss_changes":[2.1071643E10,2.0396524E10,8.39259E9,1.3559547E10,1.2862099E10,7.939372E9,3.8727432E9,0E0,0E0,0E0,0E0,0E0,0E0,0E0,0E0],"parents":[2147483647,0,0,1,1,2,2,3,3,4,4,5,5,6,6],"right_children":[2,4,6,8,10,12,14,-1,-1,-1,-1,-1,-1,-1,-1],"split_conditions":[-3.6317146E-1,7.223962E-1,-5.3362012E-2,-3.1584695E-1,1.6577514E-1,5.2817357E-1,-5.328419E-1,1.3124056E1,-2.1860213E0,1.8732347E1,6.2434612E1,-8.886226E0,-4.682514E1,6.7727203E0,-2.191314E0],"split_indices":[48,221,267,230,323,356,381,0,0,0,0,0,0,0,0],"split_type":[0,0,0,0,0,0,0,0,0,0,0,0,0,0,0],"sum_hessian":[1.12593E5,2.6683E4,8.591E4,2.3385E4,3.298E3,2.761E3,8.3149E4,1.049E4,1.2895E4,2.355E3,9.43E2,2E3,7.61E2,5.136E3,7.8013E4],"tree_param":{"num_deleted":"0","num_feature":"384","num_nodes":"15","size_leaf_vector":"1"}},{"base_weights":[-3.1016802E1,-2.317207E2,7.9865375E2,-2.800749E3,-1.9372592E2,3.3297397E2,2.4880925E3,-2.8029637E0,-5.477559E1,2.5503647E0,-3.6030004E0,1.9058638E1,-7.181872E-1,1.5330292E1,5.5056873E1],"categories":[],"categories_nodes":[],"categories_segments":[],"categories_sizes":[],"default_left":[0,0,0,0,0,0,0,0,0,0,0,0,0,0,0],"id":71,"left_children":[1,3,5,7,9,11,13,-1,-1,-1,-1,-1,-1,-1,-1],"loss_changes":[1.8816565E10,8.880861E9,1.7316049E10,8.944687E9,6.702675E9,1.0986933E10,1.3698322E10,0E0,0E0,0E0,0E0,0E0,0E0,0E0,0E0],"parents":[2147483647,0,0,1,1,2,2,3,3,4,4,5,5,6,6],"right_children":[2,4,6,8,10,12,14,-1,-1,-1,-1,-1,-1,-1,-1],"split_conditions":[2.6475093E-1,-3.1799144E-1,6.945989E-1,8.4966764E-2,-3.079026E-1,8.413178E-2,7.677247E-2,-2.8029637E0,-5.477559E1,2.5503647E0,-3.6030004E0,1.9058638E1,-7.181872E-1,1.5330292E1,5.5056873E1],"split_indices":[125,235,221,89,230,280,43,0,0,0,0,0,0,0,0],"split_type":[0,0,0,0,0,0,0,0,0,0,0,0,0,0,0],"sum_hessian":[1.12998E5,9.0988E4,2.201E4,1.325E3,8.9663E4,1.7255E4,4.755E3,6.83E2,6.42E2,2.4272E4,6.5391E4,3.531E3,1.3724E4,3.613E3,1.142E3],"tree_param":{"num_deleted":"0","num_feature":"384","num_nodes":"15","size_leaf_vector":"1"}},{"base_weights":[2.9616222E1,9.362361E2,-2.1092899E2,7.647579E2,7.10718E3,-2.7612273E3,-1.7704985E2,2.3733523E0,2.2053774E1,3.935258E1,9.203286E1,-1.3090474E2,-2.1307182E1,-1.3077859E0,-1.8224438E1],"categories":[],"categories_nodes":[],"categories_segments":[],"categories_sizes":[],"default_left":[0,0,0,0,0,0,0,0,0,0,0,0,0,0,0],"id":72,"left_children":[1,3,5,7,9,11,13,-1,-1,-1,-1,-1,-1,-1,-1],"loss_changes":[2.4585574E10,2.5008933E10,7.697576E9,1.747599E10,4.2122916E9,7.57892E9,6.694186E9,0E0,0E0,0E0,0E0,0E0,0E0,0E0,0E0],"parents":[2147483647,0,0,1,1,2,2,3,3,4,4,5,5,6,6],"right_children":[2,4,6,8,10,12,14,-1,-1,-1,-1,-1,-1,-1,-1],"split_conditions":[-3.7155116E-1,2.3728172E-1,-3.1799144E-1,4.1300285E-1,-2.3504509E-1,-3.781746E-1,1.3809109E-1,2.3733523E0,2.2053774E1,3.935258E1,9.203286E1,-1.3090474E2,-2.1307182E1,-1.3077859E0,-1.8224438E1],"split_indices":[164,21,235,92,8,240,218,0,0,0,0,0,0,0,0],"split_type":[0,0,0,0,0,0,0,0,0,0,0,0,0,0,0],"sum_hessian":[1.12733E5,2.3638E4,8.9095E4,2.3E4,6.38E2,1.167E3,8.7928E4,1.6837E4,6.163E3,2.55E2,3.83E2,6.6E1,1.101E3,8.5524E4,2.404E3],"tree_param":{"num_deleted":"0","num_feature":"384","num_nodes":"15","size_leaf_vector":"1"}},{"base_weights":[-1.1168463E1,-1.94643E2,8.427394E2,2.8868127E2,-3.7638766E2,7.325307E1,1.7833765E3,9.061204E0,-9.4213367E-1,-2.3231144E1,-3.0923276E0,7.3948074E1,-5.7920545E-1,2.4402258E1,5.3101897E0],"categories":[],"categories_nodes":[],"categories_segments":[],"categories_sizes":[],"default_left":[0,0,0,0,0,0,0,0,0,0,0,0,0,0,0],"id":73,"left_children":[1,3,5,7,9,11,13,-1,-1,-1,-1,-1,-1,-1,-1],"loss_changes":[1.7657225E10,8.1491743E9,1.4427524E10,5.993657E9,8.813116E9,1.0531157E10,7.3766953E9,0E0,0E0,0E0,0E0,0E0,0E0,0E0,0E0],"parents":[2147483647,0,0,1,1,2,2,3,3,4,4,5,5,6,6],"right_children":[2,4,6,8,10,12,14,-1,-1,-1,-1,-1,-1,-1,-1],"split_conditions":[2.778788E-1,-3.094869E-1,3.843152E-1,-2.6355544E-1,-3.1174493E-1,-1.5227215E-1,-1.9682138E-1,9.061204E0,-9.4213367E-1,-2.3231144E1,-3.0923276E0,7.3948074E1,-5.7920545E-1,2.4402258E1,5.3101897E0],"split_indices":[125,230,180,48,20,301,66,0,0,0,0,0,0,0,0],"split_type":[0,0,0,0,0,0,0,0,0,0,0,0,0,0,0],"sum_hessian":[1.12701E5,9.2769E4,1.9932E4,2.5351E4,6.7418E4,1.0964E4,8.968E3,9.703E3,1.5648E4,2.247E3,6.5171E4,1.92E2,1.0772E4,5.882E3,3.086E3],"tree_param":{"num_deleted":"0","num_feature":"384","num_nodes":"15","size_leaf_vector":"1"}},{"base_weights":[-1.6699257E1,1.2481577E3,-1.4404187E2,5.0774297E3,8.3630963E2,-1.6010301E2,9.778839E3,2.6517052E1,5.5722046E1,4.912868E0,2.9060781E1,8.347499E0,-2.406262E0,8.152898E1,1.23077126E2],"categories":[],"categories_nodes":[],"categories_segments":[],"categories_sizes":[],"default_left":[0,0,0,0,0,0,0,0,0,0,0,0,0,0,0],"id":74,"left_children":[1,3,5,7,9,11,13,-1,-1,-1,-1,-1,-1,-1,-1],"loss_changes":[1.8209808E10,1.630432E10,1.6371384E10,1.1902116E9,6.667E9,8.2152704E9,5.8221466E8,0E0,0E0,0E0,0E0,0E0,0E0,0E0,0E0],"parents":[2147483647,0,0,1,1,2,2,3,3,4,4,5,5,6,6],"right_children":[2,4,6,8,10,12,14,-1,-1,-1,-1,-1,-1,-1,-1],"split_conditions":[-2.0970662E-1,-1.0320937E-1,6.7290556E-1,-8.189918E-2,2.1028635E-1,-4.571501E-1,-2.493128E-1,2.6517052E1,5.5722046E1,4.912868E0,2.9060781E1,8.347499E0,-2.406262E0,8.152898E1,1.23077126E2],"split_indices":[274,281,212,40,68,164,3,0,0,0,0,0,0,0,0],"split_type":[0,0,0,0,0,0,0,0,0,0,0,0,0,0,0],"sum_hessian":[1.13053E5,1.034E4,1.02713E5,1.003E3,9.337E3,1.02548E5,1.65E2,1.71E2,8.32E2,8.004E3,1.333E3,7.678E3,9.487E4,1.03E2,6.2E1],"tree_param":{"num_deleted":"0","num_feature":"384","num_nodes":"15","size_leaf_vector":"1"}},{"base_weights":[6.3034477E0,1.8861967E3,-8.630589E1,8.3507324E2,6.508363E3,-1.5387978E2,1.880109E3,4.831109E0,3.6898495E1,8.258255E1,1.323909E1,2.9788806E0,-3.3758037E0,1.49798975E1,5.166211E1],"categories":[],"categories_nodes":[],"categories_segments":[],"categories_sizes":[],"default_left":[0,0,0,0,0,0,0,0,0,0,0,0,0,0,0],"id":75,"left_children":[1,3,5,7,9,11,13,-1,-1,-1,-1,-1,-1,-1,-1],"loss_changes":[1.9656608E10,2.5749295E10,1.4298792E10,4.3388396E9,8.898007E9,8.633718E9,4.481327E9,0E0,0E0,0E0,0E0,0E0,0E0,0E0,0E0],"parents":[2147483647,0,0,1,1,2,2,3,3,4,4,5,5,6,6],"right_children":[2,4,6,8,10,12,14,-1,-1,-1,-1,-1,-1,-1,-1],"split_conditions":[3.8379073E-1,3.6598054E-1,4.0468982E-1,-6.589502E-2,7.573049E-2,-3.079026E-1,2.2711132E-1,4.831109E0,3.6898495E1,8.258255E1,1.323909E1,2.9788806E0,-3.3758037E0,1.49798975E1,5.166211E1],"split_indices":[28,67,125,229,2,230,292,0,0,0,0,0,0,0,0],"split_type":[0,0,0,0,0,0,0,0,0,0,0,0,0,0,0],"sum_hessian":[1.12905E5,5.3E3,1.07605E5,4.319E3,9.81E2,1.04031E5,3.574E3,3.846E3,4.73E2,7.33E2,2.48E2,3.0073E4,7.3958E4,3.203E3,3.71E2],"tree_param":{"num_deleted":"0","num_feature":"384","num_nodes":"15","size_leaf_vector":"1"}},{"base_weights":[2.4789143E-1,-2.0949452E2,8.562776E2,-2.2159645E2,7.2320625E1,5.571439E2,3.411674E3,-2.6100998E1,-1.864902E0,1.8679098E1,1.3833075E0,7.665416E1,2.366347E1],"categories":[],"categories_nodes":[],"categories_segments":[],"categories_sizes":[],"default_left":[0,0,0,0,0,0,0,0,0,0,0,0,0],"id":76,"left_children":[1,3,5,7,-1,9,11,-1,-1,-1,-1,-1,-1],"loss_changes":[2.0234625E10,8.153579E9,1.695184E10,7.577497E9,0E0,1.0900012E10,1.0315647E10,0E0,0E0,0E0,0E0,0E0,0E0],"parents":[2147483647,0,0,1,1,2,2,3,3,5,5,6,6],"right_children":[2,4,6,8,-1,10,12,-1,-1,-1,-1,-1,-1],"split_conditions":[2.6475093E-1,4.886006E-1,3.5389397E-1,-3.1799144E-1,7.2320625E1,2.7791747E-1,-3.028656E-3,-2.6100998E1,-1.864902E0,1.8679098E1,1.3833075E0,7.665416E1,2.366347E1],"split_indices":[125,67,67,235,0,106,161,0,0,0,0,0,0],"split_type":[0,0,0,0,0,0,0,0,0,0,0,0,0],"sum_hessian":[1.12697E5,9.0519E4,2.2178E4,9.0373E4,1.46E2,1.9855E4,2.323E3,1.308E3,8.9065E4,4.807E3,1.5048E4,4.57E2,1.866E3],"tree_param":{"num_deleted":"0","num_feature":"384","num_nodes":"13","size_leaf_vector":"1"}},{"base_weights":[3.620864E0,1.7318728E3,-1.0687967E2,3.3251108E3,-4.228928E1,-1.25994995E2,4.686836E3,1.9819874E1,5.7595478E1,-6.1441986E1,1.1139039E0,4.8477063E0,-2.5848532E0,9.37411E0,7.23749E1],"categories":[],"categories_nodes":[],"categories_segments":[],"categories_sizes":[],"default_left":[0,0,0,0,0,0,0,0,0,0,0,0,0,0,0],"id":77,"left_children":[1,3,5,7,9,11,13,-1,-1,-1,-1,-1,-1,-1,-1],"loss_changes":[2.158698E10,1.9201663E10,9.736094E9,1.1691012E10,3.0155164E9,8.5633787E9,4.0290058E9,0E0,0E0,0E0,0E0,0E0,0E0,0E0,0E0],"parents":[2147483647,0,0,1,1,2,2,3,3,4,4,5,5,6,6],"right_children":[2,4,6,8,10,12,14,-1,-1,-1,-1,-1,-1,-1,-1],"split_conditions":[-4.6463084E-1,-2.6380777E-1,4.886006E-1,4.6269706E-1,5.217887E-2,-4.0409914E-1,-2.3752052E-1,1.9819874E1,5.7595478E1,-6.1441986E1,1.1139039E0,4.8477063E0,-2.5848532E0,9.37411E0,7.23749E1],"split_indices":[113,230,67,158,33,230,0,0,0,0,0,0,0,0,0],"split_type":[0,0,0,0,0,0,0,0,0,0,0,0,0,0,0],"sum_hessian":[1.13035E5,6.792E3,1.06243E5,3.578E3,3.214E3,1.05822E5,4.21E2,2.307E3,1.271E3,7.8E1,3.136E3,1.8863E4,8.6959E4,1.71E2,2.5E2],"tree_param":{"num_deleted":"0","num_feature":"384","num_nodes":"15","size_leaf_vector":"1"}},{"base_weights":[1.4070023E1,1.3261029E3,-1.1698625E2,5.6792207E3,8.6956573E2,-1.5243573E2,3.7645522E3,6.645678E1,2.183214E1,5.7092094E0,3.6128597E1,-9.9725693E-1,-1.5309554E1,1.7466578E1,8.0037125E1],"categories":[],"categories_nodes":[],"categories_segments":[],"categories_sizes":[],"default_left":[0,0,0,0,0,0,0,0,0,0,0,0,0,0,0],"id":78,"left_children":[1,3,5,7,9,11,13,-1,-1,-1,-1,-1,-1,-1,-1],"loss_changes":[1.9392004E10,2.0349604E10,1.4109238E10,3.2696259E9,7.593393E9,7.38287E9,7.924301E9,0E0,0E0,0E0,0E0,0E0,0E0,0E0,0E0],"parents":[2147483647,0,0,1,1,2,2,3,3,4,4,5,5,6,6],"right_children":[2,4,6,8,10,12,14,-1,-1,-1,-1,-1,-1,-1,-1],"split_conditions":[-2.0970662E-1,-1.0320937E-1,9.7265705E-2,-1.8054714E-2,-8.528891E-2,4.15492E-1,1.0088997E-2,6.645678E1,2.183214E1,5.7092094E0,3.6128597E1,-9.9725693E-1,-1.5309554E1,1.7466578E1,8.0037125E1],"split_indices":[274,281,72,49,102,78,77,0,0,0,0,0,0,0,0],"split_type":[0,0,0,0,0,0,0,0,0,0,0,0,0,0,0],"sum_hessian":[1.12775E5,1.0241E4,1.02534E5,9.71E2,9.27E3,1.01607E5,9.27E2,7.6E2,2.11E2,8.361E3,9.09E2,9.7866E4,3.741E3,6.29E2,2.98E2],"tree_param":{"num_deleted":"0","num_feature":"384","num_nodes":"15","size_leaf_vector":"1"}},{"base_weights":[-1.2824427E1,1.4920574E3,-1.05345276E2,1.0560016E3,6.6026807E3,3.47452E2,-2.966969E2,1.6931204E1,-2.2097352E0,7.686073E1,3.2611666E0,2.814893E0,5.263516E1,-1.2221617E1,-2.077565E0],"categories":[],"categories_nodes":[],"categories_segments":[],"categories_sizes":[],"default_left":[0,0,0,0,0,0,0,0,0,0,0,0,0,0,0],"id":79,"left_children":[1,3,5,7,9,11,13,-1,-1,-1,-1,-1,-1,-1,-1],"loss_changes":[1.5784021E10,1.462547E10,9.253456E9,4.923377E9,3.5062845E9,1.0286526E10,